102 100
the 0.041585278 -0.035452556 -0.030621564 0.02588297 0.0054443963 -0.015672874 -0.047740053 -0.045339253 0.040912043 -0.040163636 0.0011073351 0.025156345 0.019797947 0.025262143 -0.0459703 -0.009761561 0.007321108 -0.041090943 0.005880952 -0.02994988 -0.04953898 0.03299551 0.02674855 0.016533699 0.0063915253 -0.036799707 0.006453216 -0.034283184 -0.017644264 0.03628434 -0.038535107 -0.0022817962 -0.032936767 0.046802286 -0.013056409 0.008842349 -0.031360317 0.039547328 0.033867273 -0.03572488 0.037362624 0.009198237 0.03895289 0.03643967 -0.02971989 -0.028194059 -0.028408622 0.008682657 0.011512756 -0.032029748 0.01244396 -0.03346454 -0.03412055 0.017008688 0.0294449 -0.012253545 0.0008238554 -0.0036417246 -0.007975746 0.019969273 0.021547865 -0.009763278 -0.014212858 0.014407445 -0.028411686 0.01277769 -0.042973068 -0.010313071 -0.035983205 0.03673097 -0.021549487 0.025083195 -0.048618566 -0.036989905 -0.02570182 -0.029229105 0.03334022 -0.04380393 0.006427504 -0.032673277 -0.009517051 -0.04999845 0.02808204 -0.03442787 -0.010138772 -0.015565574 0.008202542 0.030479897 0.01140102 -0.0141991265 0.004073344 0.04365884 0.02012689 0.031418566 0.03159556 0.007901333 -0.043208897 0.011666883 0.022395458 0.030707005
of -0.03561746 0.00651405 0.043307032 0.015904095 -0.035458196 0.03681388 0.04906038 0.021501172 -0.011208713 -0.019538213 0.016079795 0.01983286 0.02770399 0.019815017 -0.037602723 -0.018627953 0.0020888671 0.04563788 0.047631312 0.010380734 0.0016409643 0.049949754 -0.019996846 -0.028930878 0.048676226 -0.024396682 -0.0108403675 -0.040319704 0.036998216 0.01475301 0.020920169 -0.0408221 0.028099488 0.00014141947 -0.024525022 0.02935687 0.01589321 0.04901732 -0.042586233 -0.03789071 -0.022908485 -0.02561388 -0.0003979802 -0.038166486 -0.0488464 0.0011774413 -0.04794364 -0.03337165 -0.028205454 -0.02766223 -0.0019031055 0.01821259 -0.036881365 -0.0013479814 0.016394485 0.025995385 0.023125853 -0.0070828423 -0.046535697 -0.021982253 -0.024587607 -0.042604603 -0.004100658 0.047482718 0.031088982 -0.037602555 -0.041814648 -0.04443134 0.031660166 -0.018698335 0.049243007 -0.04022832 0.021362748 0.0038043037 -0.017164588 0.042216133 0.030278776 -0.009000231 -0.011645306 0.021217238 -0.0286847 -0.023987938 0.026025001 0.031168487 -0.0033664927 0.044743214 -0.023538698 -0.008751344 -0.010710228 0.02209865 0.04407939 -0.0101240985 0.01729652 -0.022969712 -0.028643811 0.0045915134 0.011834241 -0.0005363226 -0.017755568 -0.021726668
influenza 0.017890919 0.029892456 -0.0028382055 0.028958563 -0.015705526 0.0248111 -0.04655075 -0.002749145 -0.028558826 -0.031431116 -0.029184759 0.04414228 0.013643589 -0.04032048 -0.03998641 0.047874097 -0.014349271 0.037551228 0.037996773 0.008780919 0.020191934 -0.0012147538 -0.02546898 -0.032267738 0.0051613674 -0.013032533 -0.016990423 0.02283771 0.009850621 0.0050747283 -0.027180362 -0.025157237 0.029975425 0.046779368 -0.020810975 -0.03084941 -0.005880475 -0.012089979 -0.03420905 -0.02571944 -0.048573818 -0.023429299 0.022943322 0.013688866 0.043968808 -0.010350812 -0.03826604 0.002745472 -0.030300785 0.015995745 -0.008918632 -0.036865138 -0.03675423 -0.029944396 0.028120104 -0.03389933 0.026385415 -0.0054539815 0.008739054 -0.029812872 -0.010735773 -0.04806645 -0.005556058 0.0022669658 0.0026301518 -0.03183814 0.008023895 -0.03217216 0.032624636 -0.017823517 -0.0049608946 0.01264305 0.0098341 0.007359553 0.017466057 0.021987703 -0.027710224 -0.0034094565 0.0052197576 -0.035923135 -0.026533473 0.04043596 0.023205306 0.015441332 -0.0045201294 0.00022340938 0.0016165376 0.04092871 0.0011775717 0.043404292 0.040206853 9.878725e-05 0.029486742 -0.037709333 0.03010318 -0.023684477 0.03175545 0.049470853 -0.038676202 -0.014371455
covid -0.002445422 -0.04671469 -0.045367517 0.049547527 -0.014355887 0.023200188 -0.002490759 -0.009679366 0.04008278 -0.02730229 0.0152316205 -0.0120155215 -0.034846246 0.027102005 -0.008987904 0.0036888719 -0.043549 0.0057362914 -0.049649417 0.031801138 -0.010836709 -0.03203197 -0.019157637 0.024363343 -0.031289294 0.030435506 0.046340797 -0.034849666 -0.040567208 -0.03418901 0.012293257 0.015193168 0.013878848 -0.012917329 0.034551468 0.002741564 0.04525241 0.017469082 -0.03429556 0.023520637 0.022515807 0.042308066 -0.0127781145 0.008190297 -0.013786972 0.042646002 -0.023184096 0.009408604 -0.027644515 -0.035713136 -0.0019111261 -0.042745292 0.026818264 -0.020543719 0.011438835 -0.036057115 0.04344182 -0.020576214 0.034067336 0.039459947 0.038197186 0.0070180893 -0.014375903 -0.004488133 -0.03959755 0.0015307888 -0.006338395 0.04495928 0.0057693943 0.03580976 -0.016281761 -0.043127503 0.006896246 0.035725024 0.046822514 0.045276117 -0.043415107 0.04740007 0.0013753548 0.028934184 -0.01488011 0.00266546 -0.00913037 -0.008855771 -0.009960689 0.041211773 -0.0067825094 -0.04359298 0.017706405 0.045675162 0.013541136 -0.048063137 -0.0030416362 0.03807224 0.035307374 -0.031923734 -0.003663756 0.039902437 -0.0006603226 0.033472788
19 0.040209223 -0.0036147125 -0.035373736 -0.042129587 0.005771421 -0.009790279 0.035414312 -0.027921772 0.04979234 -0.035810553 0.0013914593 0.012808476 0.019419018 -0.026171876 -0.024550606 -0.014680445 0.016752508 -0.00011347607 0.032498028 0.01715627 0.028610352 -0.02931937 -0.009026896 0.010640882 0.038240362 -0.012838423 -0.019707192 0.019334447 -0.030852664 0.044708204 -0.045019507 0.038530935 0.014979329 0.038158964 -0.04413073 0.0256822 -0.044069756 0.028038155 0.037141297 -0.025037408 -0.049167704 0.017491493 0.00038963556 0.035514344 0.046744693 -0.03154961 0.01216235 -0.015160751 -0.033258215 -0.043811347 0.0078534 -0.041462995 0.022573795 -0.02889328 0.040162515 0.020853903 0.002444338 -0.036021747 0.012883391 -0.009038806 -0.025762094 0.035058346 0.04255973 -0.03657315 0.039416205 -0.040225316 -0.0060383566 0.026744928 0.013835799 -0.027227594 -0.037481498 0.030674402 -0.048322022 -0.03679837 -0.026719963 -0.047516275 -0.024890054 -0.048569944 0.014524948 -0.025099361 -0.024156094 0.018961538 -0.037762083 -0.022901583 0.04620332 0.040806558 0.012632098 0.011630118 -0.044267844 -0.020219196 -0.003336668 0.017993215 -0.048862766 -0.010035049 0.046083335 -0.009573519 -0.012728155 -0.025337685 -0.0018933415 -0.028110648
virus -0.023003614 0.03191768 0.043929707 -0.035501994 -0.03719852 -0.044231977 0.014649812 -0.027277816 0.008765496 -0.01950605 0.012980673 0.04885919 -0.027533745 0.019371655 0.024809863 -0.0015327111 -0.030630006 -0.02180003 -0.044671025 0.034642164 0.03525946 -0.026220573 0.031125892 -0.03214743 -0.04085659 -0.018822432 -0.0074046366 0.02822626 0.006956447 0.031977665 0.012933161 -0.016132377 -0.024924148 0.02683175 0.030669484 0.008282401 0.023630742 0.02380016 -0.00055070966 -0.031496227 0.03546082 0.006415058 0.00656116 -0.0068804733 0.00888896 0.03716712 -0.0149935 0.021897268 -0.046649814 0.028979372 -0.036453165 0.028711524 0.028614808 -0.015619539 0.0005656965 0.0155634545 0.005178284 0.011229742 0.0035809167 -0.039430343 0.01348665 0.0018691793 0.0031886809 -0.040788293 0.017634604 -0.029864227 0.008297395 0.04766116 0.0012068264 0.017707873 0.02317318 -0.041044008 -0.048581757 -0.04214444 -0.021845639 -0.034790695 -0.011605002 -0.043303944 0.026236784 -0.0053882226 0.010987341 0.04271299 -0.037644506 -0.037859596 0.005818486 0.021657001 0.03629997 0.043240216 0.0026304834 -0.012622405 -0.036043774 -0.04924425 -0.044902574 0.013247523 -0.024523938 0.027494643 -0.02064333 0.0128565915 0.024961319 -0.02580303
for -0.02088139 -0.017310359 -0.0077057853 0.027134303 0.019716714 0.006743215 0.04810332 0.041821923 -0.02176472 0.0097773895 -0.04848801 0.019169103 0.017018948 -0.0102216005 -0.018859267 -0.038137116 -0.045737673 -0.041155733 0.007890355 0.016310666 0.005783666 -0.047543157 0.04411516 -0.020201195 -0.025331868 0.048039507 -0.014293551 -0.0030055046 -0.02095977 -0.026706506 0.041204277 -0.018079221 0.040078547 -0.0024581775 -0.021894086 0.035545718 0.032880608 0.02121352 -0.008387722 -0.044818103 -0.0129804835 0.017319802 0.024724338 0.023722116 0.021632839 -0.020379437 -0.039922833 0.041301955 0.016582977 -0.046240903 0.022629265 -0.04218496 -0.02515161 0.048370037 0.013240699 0.034804154 -0.03375963 -0.001734972 0.0066648237 0.04236051 -0.035654675 0.031646755 -0.03705287 -0.028208613 0.02237172 -0.010926366 -0.039435554 0.00274539 0.0039510354 0.016791787 -0.027393473 0.048971426 0.0123745315 -0.013225816 -0.04938643 0.0387236 -0.045213033 0.04055151 -0.04080825 -0.014199484 0.04915798 0.046820793 0.017332602 -0.01833105 0.024773363 0.020727243 -0.04051932 -0.042474724 -0.0027777776 0.010213304 0.010020267 -0.001378797 0.04844929 0.037329268 0.0094782 -0.0027562603 -0.038872622 0.043755714 0.025607515 -0.0015495047
transmission -0.016164113 -0.027914274 -0.008065917 0.04549023 0.019501034 0.045664977 0.030502606 0.043535564 -7.491186e-05 0.018613491 -0.016571414 -0.029647756 -0.001268398 0.014337864 0.040218774 0.038725223 -0.008305419 -0.026727712 0.037476692 0.044166554 -0.029616272 0.02422798 0.023296598 -0.027586056 -0.01154878 -0.03203579 -0.0421476 0.034471083 -0.011332452 -0.013917197 0.035108652 -0.010718167 0.04426874 -0.03410764 -0.027072359 0.003959965 -0.026222348 0.026048686 -0.035449743 0.016180191 0.0492378 -0.019410718 -0.015599348 0.0039936416 -0.017885376 0.031596724 -0.048565377 0.025720786 0.017114166 0.038646784 -0.04849373 0.048669185 0.03721055 0.021822486 0.03963622 -0.04087882 0.010695852 -0.008836497 0.0349651 0.03758881 0.025336888 -0.017045595 0.044431936 0.030682031 0.03800262 0.042510185 -0.01167395 0.011335265 0.00588746 0.0111282095 -0.04355487 0.04914147 0.024587225 -0.043816425 0.04167744 -0.009339236 0.022191677 0.027165268 -0.04443095 -0.023321545 -0.013697542 -0.003484141 0.030228857 -0.035644103 0.02419642 0.037908625 0.03981963 0.028761867 -0.019479001 0.030378941 -0.034567237 0.036676098 0.043929685 0.0118883625 0.04105306 0.013841156 0.024462428 -0.044778492 -0.032909833 -0.034774207
is -0.027094198 -0.04933629 0.036381435 -0.029480148 -0.036676906 -0.024691809 -0.039467335 0.0042858236 0.042786155 0.038025428 -0.018015765 0.0070447326 -0.0183241 -0.009701777 -0.021340085 -0.02111423 -0.002951026 0.013652254 0.021981385 0.0032225363 -0.009726275 -0.023919 -0.035259284 0.036183264 0.029749144 0.043983486 0.04625343 0.029001702 0.028074648 -0.044658065 -0.023846341 -0.029868161 -0.03144522 -0.0018353835 -0.019044388 -0.021984685 0.032259297 0.0019812472 -0.038283467 -0.018973231 0.004215479 0.049500715 -0.041196704 -0.028076708 0.046495784 0.004548896 -0.0045852177 0.012811031 0.028184537 0.036193144 0.043351892 0.015440706 -0.04260386 -0.039349914 -0.0059403293 -0.008555375 -0.00486207 0.009200085 0.04215065 -0.026750147 0.03648075 0.02841327 0.019116666 0.023928497 -0.03950336 0.042752776 -0.02767005 0.017852057 -0.026340008 0.040445033 -0.03692492 0.03139365 0.041375745 -0.033023857 0.025710348 0.013950799 0.009906102 0.01720718 0.015042197 -0.0044495948 -0.03759403 0.031356934 0.024921719 0.03334702 -0.012333859 -0.04517529 0.025738124 0.0053732507 -0.026299477 0.021328632 -0.009392522 0.016173448 -0.029902423 0.036732543 0.012198437 0.026387203 0.01520044 -0.026335537 0.019770574 -0.04989326
to 0.02337059 -0.040617466 0.031100798 0.035643075 -0.048273325 -0.033183932 -0.002858758 -0.04441289 -0.045757975 -0.039619494 -0.036249064 0.020847987 -0.046763707 0.046420548 -0.036718346 0.0061508045 -0.004006088 0.047192845 -0.04777472 0.01943009 -0.019382536 -0.044455767 0.034963477 -0.03207295 0.021257866 0.017489363 -0.038422536 0.040415052 -0.037281442 0.014628325 0.046479438 -0.00095372275 -0.032869983 0.03979012 0.043527354 0.015748117 0.040740933 -0.021349454 0.016077626 0.033791076 -0.01403302 0.008287918 0.0042397864 -0.023281742 -0.0027885325 0.0021357536 0.049668003 -0.013951004 -0.016734552 0.045827996 -0.043764006 0.0005934462 -0.02183695 -0.034281313 -0.029291833 -0.035908986 0.03948191 0.022822764 -0.017550923 -0.017680537 0.03754897 -0.034133255 0.013913821 0.04774214 0.016005103 0.016523566 0.030479502 0.011458077 -0.04256339 0.025176946 -0.027574206 -0.028213179 0.035580527 -0.045348108 -0.041341044 0.046205286 -0.03681866 0.03994206 -0.014275491 -0.045468427 -0.023065627 0.011584271 -0.0030763373 0.049703244 -0.039883506 0.04551797 -0.04807348 -0.028105522 0.010059096 0.0112761855 0.034553204 -0.033189073 0.01591779 0.022189345 -0.0076754205 0.017091725 -0.023944795 -0.012741767 -0.023339702 0.00040889904
a 0.048189234 0.02594408 0.014545213 -0.014317464 0.019392516 0.035719898 -0.0012038723 0.04594094 -0.02965951 0.0409848 0.013293896 0.028403524 -0.04360796 0.036715996 -0.0011121258 0.017296586 0.044307258 0.0444904 0.041640285 -0.024180258 -0.00031394884 -0.01029513 0.015758421 -0.021401346 0.005053781 -0.011270631 0.03383323 0.03488617 -0.017861068 -0.034420572 0.021423902 -0.033239737 0.012460161 -0.042138577 0.00018359348 -0.029481638 -0.04445845 0.048729453 0.0037742965 0.016584221 0.023916688 0.04318272 0.013053309 0.010565199 -0.01803013 0.042396534 0.01578803 -0.042312037 0.023429122 0.032347415 -0.04538857 -0.0075119957 0.009714879 -0.021742595 0.002677966 -0.0062536113 -0.0056858286 0.0011659749 -0.039762307 0.025954429 -0.03145759 -0.02538873 -0.014849532 0.025690485 -0.022311402 0.029964436 -0.047689974 -0.018962204 0.016111467 -0.035580624 0.00012495369 0.03166468 0.008529566 0.048637185 -0.0033898242 0.04972789 0.03937954 0.040210996 -0.007976282 -0.035364915 -0.016603589 0.011456251 -0.0007091053 0.03442439 0.01386236 -0.018100679 -0.005874671 -0.0378808 -0.025277937 -0.0013193116 -0.024879003 -0.029060973 -0.014655113 0.010838617 0.03833543 0.0014860854 0.012232445 -0.005645953 -0.017422259 -0.044031333
and 0.02052838 0.003045261 -0.037758388 0.022507895 0.00095784664 -0.014160551 0.005504001 0.033553187 0.037947956 -0.013427127 -0.019777358 -0.035354994 -0.022683227 0.0050251856 0.007395912 -0.01736895 0.01563051 -0.010829844 -0.020733787 0.03763647 -0.049352743 -0.020121945 0.01647589 -0.016305555 -0.000620164 0.009506322 0.0038090944 0.044586215 -0.012026906 -0.0068453327 -0.046253886 0.030816007 -0.04093497 0.015150074 -0.036663007 -0.033976868 -0.0048334114 0.034060124 -0.0131234415 0.009371199 0.0422331 -0.023630977 -0.028662657 -0.02345593 -0.042569198 -0.021656012 -0.023807157 -0.027745081 -0.048534155 -0.029215991 -0.028895248 -0.044784248 -0.03298688 -0.03859471 -0.046290424 -0.04252508 0.012461614 0.0046590455 0.002806235 -0.035702586 0.04135463 -0.0010012761 -0.02712704 0.0069432147 -0.005310379 0.00080338866 -0.032573782 -0.022725428 -0.049980666 -0.048677612 0.025428679 0.010462619 0.00026582554 -0.019093646 0.035887394 -0.034047447 0.044628825 0.027361702 -0.016233038 -0.026980115 0.002553463 0.0066923983 -0.0044176467 -0.014932167 -0.006157078 -0.015416421 0.04245353 0.037204538 -0.044722367 -0.007122956 0.042842004 -0.045473874 0.04178724 0.034360457 0.01567955 -0.02683729 -0.016062297 0.004070282 -0.016189385 -0.017434131
between -0.00537169 0.024870697 -0.017503 -0.03400761 -0.02367872 0.01673038 0.012381814 0.027368058 0.028832044 0.02635261 0.013309624 0.04604021 0.01077497 -0.048052337 0.046137724 -0.0016659126 -0.008782934 -0.034808196 0.0441149 0.046550307 0.015985537 0.043526877 0.037159864 0.013279583 -0.022157526 0.028019514 -0.032645024 0.029153023 -0.03910508 -0.03500112 -0.024165226 0.049346637 0.046378482 -0.010498334 0.001973819 0.03036647 0.040575337 -0.018156875 0.00041644648 -0.0008038506 -0.041950822 0.046301987 0.008915521 -0.027219845 0.03901806 -0.0066797733 -0.032301687 0.01836193 -0.00031489134 -0.009237647 0.033991184 -0.04682311 0.033972215 0.012119245 0.006922506 -0.0060927384 -0.008427955 0.027276527 -0.02115723 -0.020497262 0.017720427 -0.003662981 -0.004978992 0.045776967 -0.0078065395 0.013921749 -0.019117618 -0.036207937 0.035305824 -0.04505817 -0.026916457 0.033126 0.0038985983 0.004795037 -0.0036390424 0.038017344 0.04291946 -0.027473593 0.02275649 0.04233781 -0.03192245 -0.04654014 -0.04435966 -0.03979683 0.0096132755 0.0127895735 -0.031200767 0.005642377 0.034637738 0.0074655414 -0.038207054 0.0058272593 0.012484036 0.028239343 -0.023849417 0.008242667 -0.011743415 -0.027506256 0.048723865 0.04818568
time 0.020364013 -0.02466389 -0.026544964 -0.018891668 -0.019627083 -0.04181937 -0.008766603 0.02639569 0.043870773 0.03296263 -0.014997043 0.010125674 -0.010022689 -0.006242059 -0.0077188723 -0.04249927 -0.025685776 0.038551856 0.005305566 -0.0037070997 0.041183565 -0.046961833 -0.005817663 0.04720192 -0.046094477 0.021117855 -0.01841091 0.04724315 0.014872674 0.0027297623 -0.031344283 -0.021221543 0.03833917 -0.020331943 -0.008406557 -0.033682752 0.012658384 0.032903645 -0.036160756 0.03134754 -0.048591938 -0.027590228 0.0045235977 0.046074305 -0.03276869 -0.015455447 -0.021983624 0.04845352 -0.0013844594 -0.0046451204 -0.037249528 0.042229 0.024319697 -0.024585282 0.032216106 0.03220742 -0.03528582 -0.032279648 -0.042556264 0.04876024 -0.008014381 -0.045345094 0.004125513 -0.023349453 -0.025651861 -0.02349229 -0.046633698 0.009573303 0.040760193 0.0112967715 0.03490139 -0.035962153 -0.021604264 -0.0258147 0.04240047 -0.012461603 0.0021511205 -0.0495448 -0.023413753 -0.016761184 -0.040070783 -0.004618991 0.04031832 -0.04543189 -0.0046934485 -0.04096713 0.048925314 0.03255779 0.033147108 -0.02765441 0.016162861 0.018811528 -0.012700535 -0.015113652 0.018741693 -0.021074558 0.0124556795 0.008665036 -0.037783764 -0.019779623
serial 0.016609479 0.04550158 0.03445163 -0.040943395 -0.006121468 0.0023881309 -0.02972442 -0.016051568 -0.022014761 -0.0022010207 -0.040475834 0.04704107 -0.015400242 -0.02275343 0.00207429 -0.038851548 -0.04427555 0.013404679 -0.030541826 -0.028343773 0.030868415 0.03378666 -0.007999599 -0.03036586 -0.020351255 0.010644138 0.033479366 -0.0022679456 -0.024107588 0.012085699 -0.035342824 0.004195571 -0.017019153 -0.04173393 -0.032183208 0.023028698 -0.008939814 -0.036351275 -0.009726502 0.021416571 0.036219094 0.04048418 -0.049818695 -0.0012690052 0.00040135533 -0.0029901154 0.048049893 0.02075081 -0.022178292 -0.044565536 0.01725537 0.04197229 -0.04079113 0.025071409 0.043504987 -0.046649743 -0.0181764 -0.0012468211 0.0042775497 -0.018381298 0.018604208 -0.020883394 0.009928871 -0.032344688 -0.043874133 0.033476654 0.023479868 0.027857136 0.029477444 -0.048055913 -0.033728316 0.00648259 0.030221608 -0.02414844 -0.02672466 -0.024520708 -0.049138974 -0.010348141 0.035906997 0.024703804 0.0419955 -0.014945231 0.047162186 0.017677162 0.034449186 -0.0013405904 -0.003022194 -0.011205472 -0.038051117 0.016402934 0.047708753 0.021803666 -0.015166603 -0.011633538 0.024087016 0.0032805093 -0.027611924 0.048539076 0.022368822 0.04808786
interval 0.048157755 0.04154254 0.002903007 0.005765509 0.02492353 -0.021787716 -0.017240595 0.048623312 0.048945237 -0.015348434 0.028543975 -0.015529942 0.018120673 0.042956922 0.016505193 -0.0047512166 0.0052869804 -0.011677135 -0.025139868 0.039569262 0.011171449 -0.02575568 0.013557557 -0.010494031 -0.049564637 -0.027044011 0.0047997236 0.031811986 0.047609065 -0.033836976 0.03740487 0.0038701668 -0.023498273 -0.014669668 -0.030921984 -0.014222097 -0.01766596 -0.007913806 0.029027928 -0.04858104 0.04167277 0.013808202 0.009367097 0.04715805 0.03732879 0.04276445 -0.009267591 0.049079385 -0.0025681853 -0.0077852383 -0.043988254 -0.03867935 -0.03176613 -0.0011593811 -0.03630059 0.030308176 -0.041155923 0.040337358 -0.014585473 -0.038479853 0.022422079 -0.005473815 -0.015973877 0.045074616 0.021786604 0.016105596 -0.048787247 0.0457487 0.022921074 0.03992914 0.041655574 0.027677607 -0.0025131814 0.0015018359 -0.049902704 0.018887851 0.03460527 0.013524804 0.0013880618 -0.027040755 -0.041143227 -0.018887866 0.012159657 0.001865495 0.038814213 0.0045674928 0.020848881 -0.031774893 0.049105775 -0.033717275 0.027811434 0.019414794 -0.042770196 -0.045090854 0.016921487 0.0030945428 0.0101005435 -0.0038897395 0.043485884 -0.012258612
than -0.02125516 -0.0143690705 -0.03838749 0.03327935 0.0012075678 -0.018228602 0.020679269 -0.0003575459 0.036215965 -0.044470716 0.019775305 -0.010037698 -0.046413552 0.023543108 0.028773952 0.02501813 0.02129655 -0.00034964085 0.020588327 0.044181157 0.043732453 0.033209804 0.046884943 -0.025581336 -0.034655403 -0.008367024 -0.03058728 0.00861416 0.021841753 0.016033713 -0.011635076 -0.04233581 0.019689921 0.029652786 0.015238944 0.03400481 -0.009567965 -0.020041002 0.033289704 0.038396563 -0.029352462 -0.049788203 -0.020744039 0.033265997 0.022565994 -0.042171776 0.04795936 0.033058014 0.025480334 0.010876857 -0.04436183 -0.026445044 0.040732447 0.046664808 0.000657212 -0.0045818686 -0.005994629 -0.032602787 -0.0115858205 -0.024999619 -0.014455415 0.049830902 0.043234993 0.012702111 -0.032777227 0.048165206 0.03301246 -0.0060455315 0.0035701506 -0.049319435 -0.04287356 -0.04685259 0.0010099784 0.013169002 -0.026065314 0.045257997 -0.041448854 0.04281776 0.0359152 0.005343318 -0.048865546 -0.0080859065 -0.04986292 0.017481234 -0.011362292 0.047054913 -0.037633814 0.03688753 -0.04130453 0.046651606 0.022636358 -0.017512072 -0.04652952 -0.031179262 0.028328303 0.018092383 -0.042738747 -0.03387325 0.025380615 -0.032780565
be 0.020442557 -0.030068053 -0.027579809 -0.049611866 -0.02913034 0.035168353 0.04076321 -0.02612493 -0.04588267 0.0496498 -0.004386924 0.039592985 -0.03651153 -0.034109402 0.03647579 -0.012071025 0.0148116015 0.0029345974 -0.007036675 -0.0144765 -0.03689933 0.030776035 -0.03208909 0.030763593 -0.0005091913 -0.015765987 -0.01430304 -0.036884416 0.030072834 -0.041908503 0.025905978 0.049260747 -0.012349296 -0.010920633 -0.012699388 -0.009626258 0.022472966 0.009857856 -0.029078746 0.03840859 0.049084727 -0.037222527 0.027712557 0.0094325915 0.015898194 0.047267724 0.019197557 -0.04264119 -0.035738695 0.010131765 0.044811163 0.029263768 0.023948122 0.009521723 -0.02692411 0.045458604 -0.024918532 0.03122821 0.031695817 -0.027968539 -0.019826902 -0.038372576 -0.027688337 0.043352176 0.034842674 0.047889326 0.019083384 -0.00019328669 -0.03962667 -0.04701003 -0.042397868 0.014184009 0.015029322 -0.020789767 0.009360336 0.03525498 -0.006858479 0.045993034 0.0047307387 -0.04945879 -0.030874252 0.033589613 -0.03530425 -0.023092424 0.00073251873 0.008028902 0.04917517 0.012509551 0.047831204 -0.049366415 0.0027365573 0.04461572 -0.0010319129 -0.0010194778 0.039812718 -0.015507687 -0.03975253 0.03236938 0.028181221 -0.010740984
5 -0.036759697 0.023283187 -0.0019005314 -0.04164944 -0.036308408 -0.021268189 0.0033779964 -0.016614676 -0.0078121647 -0.034220327 0.021874223 0.0051858425 0.011770356 0.025718797 -0.016961921 -0.02700994 0.029158186 -0.0004433766 0.03419551 -0.0384861 0.04269464 0.002234675 0.019793723 0.020964656 -0.03760166 0.039660666 -0.04994304 0.0064878836 0.029245112 -0.0149536505 0.010073673 0.034057748 -0.015241541 -0.024529243 0.027182784 -0.044172656 0.006805457 -0.009205472 0.021363642 -0.04198873 0.020751368 0.047836054 0.027641084 0.03819379 0.009989083 0.0024036542 -0.036181547 -0.029990805 -0.020702874 0.048812058 0.019460563 0.015277531 -0.027163196 -0.037955783 0.015693221 -0.044453572 -0.025200164 -0.042920113 -0.049283195 0.037062217 -0.048389196 0.004594587 -0.005731214 0.005788982 0.03294274 -0.015101373 -0.011170257 -0.027588725 -0.03992746 -0.004761435 -0.033122003 -0.03579701 0.043691102 -0.00642886 -0.00875219 -0.024334585 -0.0062236413 0.02346507 -0.035452437 -0.0077541955 0.036101405 0.042397987 0.042399 -0.018401839 -0.0034466498 0.01856723 0.020895872 0.04956908 0.034680855 -0.040531456 -0.046961047 -0.020748163 -0.028911471 -0.0035120137 0.0034369454 -0.01242844 0.009060107 0.04407544 0.040975 -0.00073843077
days 0.035428572 -0.04544541 -0.0051510446 -0.03197484 0.045174528 -0.0018484481 0.009906281 0.005495928 -0.047697045 0.018319521 -0.04200566 -0.04998622 -0.036849726 0.04760592 -0.000998009 -0.04676224 -0.022699166 0.01062379 0.03246807 -0.024890734 0.015093591 0.014843632 0.022786524 0.013983045 0.019069146 -0.008962143 0.027504113 -0.009187043 -0.00032726675 0.03940702 -0.017932296 -0.04038026 0.03615583 0.043485533 -0.04578812 0.027194355 -0.03390776 -0.044238377 0.045559634 -0.012118541 0.027708922 0.014288273 -0.040013634 0.037767384 0.028417561 0.034009863 0.026049342 -0.047611307 -0.012041092 -0.005050648 0.008024275 0.023980264 0.049195755 0.033851895 -0.04428952 0.020540182 0.032252636 0.020030882 -0.004270304 0.04204526 0.02649926 0.020371232 -0.028833522 -0.00643339 0.022890475 -0.017499257 -0.03491056 -0.0028910153 0.02390245 -0.024132038 -0.0021956563 -0.019030726 0.04446349 0.0037703738 -0.018456899 0.027231965 0.012924302 0.04360411 0.0089543685 -0.029681683 0.017225292 0.043540005 -0.012129627 0.040878598 -0.019016946 0.009673715 0.04036666 -0.010909021 -0.03276955 -0.04920268 0.014067996 0.03666235 0.029361036 -0.0005390048 0.0028302185 -0.01596861 -0.030047894 0.0076129213 -0.015074693 -0.012705646
– -0.04168011 -0.016720973 0.04118334 -0.028899027 0.0019350052 -0.033499315 -0.045521833 -0.034543574 0.045804393 -0.005029179 -0.047486246 0.012130499 0.032422196 0.044899236 0.024590064 -0.034430157 -0.03791331 -0.018625151 0.025062028 -0.027937317 -0.01819091 -0.015620135 0.004999459 -0.036295615 0.045949306 -0.007382989 0.02598137 -0.03541 0.027693164 -0.03602009 0.0059117563 -0.049616624 0.040550504 0.038190436 0.013728511 -0.0040266626 -0.044182386 0.046255294 0.02539723 0.003998328 -0.035023402 -0.043083336 0.046514396 -0.046591606 0.014483932 -0.034340635 -0.0041385293 -0.040269483 -0.0014684796 0.008878637 -0.012754191 0.048061814 0.0008219369 0.045133974 -0.03626746 -0.0054990053 0.04947355 0.011741627 0.04067162 0.0114421025 0.045383777 0.011295877 -0.010232519 0.017532695 0.03739891 0.0034642108 -0.020486677 0.029528748 -0.011955738 0.01607645 0.0035127178 -0.028736508 0.001829885 0.03843793 -0.04172492 -0.029252661 0.023623612 -0.0036880746 0.04322738 -0.008904766 0.027451944 -0.020060921 -0.035464894 -0.02313806 0.019238617 -0.019441307 0.00904461 -0.03134066 0.011352539 -0.01588099 -0.01741283 0.0007604584 0.03036965 -0.018096007 -0.010450922 0.03694767 -0.049177896 -0.03581381 -0.019741047 -0.040280342
are -0.03278643 0.03291868 -0.03275299 0.0038069002 0.028118577 -0.03397751 0.035472248 0.0010193102 -0.030968785 -0.00834601 -0.036750652 0.03056616 -0.0047677755 -0.038807653 0.007195294 0.042207148 -0.008560978 0.023864496 -0.0064654835 0.023754407 0.045051012 -0.035374008 -0.025342131 0.03201786 0.013276581 -0.009362422 0.03775462 -0.013867475 -0.0007811673 0.04110558 0.036947515 -0.045459975 -0.043061387 -0.019273687 -0.036007583 0.02694204 -0.022990955 0.0012461059 -0.016293846 0.013062324 -0.043356527 -0.042881873 0.043441836 0.035335112 -0.012031697 -0.00012818724 -0.008274019 0.025720801 0.030387353 0.029175114 -0.0102601275 0.040779244 -0.030375922 -0.039444912 -0.04851475 0.031037722 -0.048618544 -0.014694978 0.020385597 -0.026113093 0.0032062903 0.035688344 -0.034626484 0.04277425 -0.0071185827 0.04962572 -0.038649417 -0.024402393 -0.043376457 0.012214065 -0.0031652227 -0.01499138 0.03360274 -0.031772733 0.01828115 -0.0039148554 -0.017427005 -0.023283457 -0.02966758 0.017629039 -0.010970093 -0.031916477 0.020945493 -0.016794644 -0.02623166 0.019543435 0.0066508166 -0.047287513 0.021542285 0.016025472 0.043745305 0.0144816525 0.038630072 -0.031826913 0.011959732 -0.006065797 0.015223671 0.02702162 -0.027878499 0.01855043
viruses 0.022805382 -0.026232338 -0.04018923 -0.01288458 0.02565017 0.008867085 0.04066444 -0.045701623 -0.03632641 -0.022841835 -0.025588727 -0.03199277 -0.04604287 -0.009453248 0.04228152 0.021091867 -0.010289479 0.016797606 0.021037254 -0.025164116 -0.03970189 -0.043284513 -0.037942313 0.0063436627 0.01815598 0.007869996 -0.02557522 -0.02527802 -0.035927318 0.02485073 -0.008596979 0.01720215 -0.045964576 0.04448017 -0.00240599 -0.038528252 -0.0030169263 0.040214013 -0.044132363 -0.040186204 -0.015983272 0.01523966 0.00716909 -0.017485954 0.020869855 0.041650068 -0.034215868 0.015237916 -0.03352978 0.041780327 0.021834407 -0.013386987 -0.005434908 0.046142105 0.04704917 -0.031171381 0.04717804 -0.02529112 -0.039687693 -0.0317065 0.025104571 0.012913596 -0.049998786 0.0056734793 -0.027178073 -0.03363003 -0.021969795 -0.028258635 -0.01208619 -0.03483684 0.034999143 -0.0036817417 -0.021062994 -0.00937419 -0.017108582 -0.015647031 0.0035369769 0.005401958 -0.047954667 0.005877912 -0.0018566139 -0.0108320005 0.028639127 0.017212871 0.031319443 0.00061404705 0.023881126 -0.025077486 0.044578817 0.008057632 0.01959553 0.028124403 -0.031522192 -0.040622473 0.020556543 0.023791756 -0.034681343 0.0495657 -0.013731182 -0.013175227
shorter -0.048520267 0.026582148 0.03911725 0.0067618005 -0.009923719 -0.014394689 0.014387097 0.0022738576 -0.019540453 -0.019868637 -0.0081859715 0.04225922 -0.03070575 0.045003165 -0.005864214 -0.040111315 0.037196327 -0.04124204 -0.0019940138 -0.023330724 -0.034885477 0.017228913 0.017782617 0.00054597855 0.010833047 0.010711156 -0.010367237 -0.014825247 0.041139375 -0.004773259 0.04890107 -0.0153203495 -0.026160384 0.029895995 -0.037173796 0.04728656 0.039921436 0.03825115 0.021120105 0.037856866 -0.029751766 -0.041381918 0.018962953 0.02270544 -0.012825727 -0.0024338737 -0.03585116 0.03657296 -0.0037005544 -0.034063116 -0.041235972 0.00049285963 -0.019206453 -0.027517034 -0.01803261 0.038690057 -0.0423295 0.023567501 -0.048221495 -0.033731423 0.003926445 0.009296309 0.012577895 0.023931947 -0.017660141 -0.009729363 0.0034386627 0.014451612 -0.03591753 -0.0042608604 -0.03192686 -0.046504177 0.014299426 -0.027141942 -0.0060749874 -0.013803542 -0.027385652 -0.017339397 0.03946005 -0.015399504 6.502867e-05 0.014342044 -0.0387645 0.010067247 0.027497057 -0.029970074 0.038014602 0.04358642 0.010344267 -0.02047254 0.027804244 -0.010900937 -0.011495449 -0.04320239 -0.031933807 0.0067607164 -0.011310149 -0.031310797 -0.04308163 -0.015650354
from 0.022721503 -0.044437397 -0.018099941 -0.014043629 0.032974783 0.04852159 -0.03582108 -0.04837147 -0.031747714 0.0038138516 -0.020970643 0.009819269 -0.009864949 0.032451298 0.04163016 0.046305824 0.03898749 0.024282504 -0.030438686 -0.00015716627 0.0055201873 -0.044157173 -0.033782497 0.027813304 7.4505806e-05 -0.022394324 0.02074692 0.013121512 -0.035079468 0.02419516 0.03728154 -0.003151238 -0.002842676 -0.0012980588 0.026875649 0.03567395 -0.029716229 0.000346601 0.038890805 -0.03943492 -0.01688335 0.016054284 0.0328074 -0.027374078 0.009398807 0.033724215 0.044211034 0.039987627 0.04905763 0.009946287 -0.044387948 -0.030445088 0.019782115 0.0064971223 -0.028087234 0.04904398 0.044005025 -0.03917061 -0.005866777 -0.036669742 0.047171894 0.02054068 -0.0008188486 0.046143238 0.008615732 -0.014991522 -0.029391205 0.006132353 0.038885463 -0.037475385 -0.025798453 0.012362968 0.010144997 -0.0030392036 -0.04072503 -0.0002584085 -0.019221699 -0.03822117 -0.025122 0.028815541 -0.034445025 -0.044101287 -0.0035500042 0.00018144771 0.014707755 -0.047008764 -0.02282076 0.025666643 0.0041477904 0.044515733 -0.035476435 -0.023463905 0.01482847 0.019153882 -0.030933594 -0.015394367 0.013981845 -0.0039758086 0.011519134 0.03801706
appearance 0.034530368 -0.017118227 -0.018683553 -0.02014774 -0.04636563 -0.04976889 0.038078215 -0.034450628 -0.010210276 -0.021395016 -0.015446387 -0.013084136 -0.026031805 -0.044674695 -0.045425188 -0.023856688 -0.0040751807 0.020272184 -0.03589934 -0.0054372326 -0.01474141 0.03473426 0.037561838 -0.020619763 -0.044597425 0.043323245 0.036504555 -0.01765884 -0.023308849 0.013939571 -0.04841545 -0.009849548 -0.0028379187 -0.013777792 0.014578868 0.02049588 0.023918156 -0.034814645 -0.016469836 0.03670344 0.041412327 0.026731942 -0.016958963 0.04660285 0.040212523 -0.038372077 -0.02072884 -0.033110727 0.046860587 -0.034723558 0.03454205 0.008945238 -0.014200591 0.016708855 -0.019276297 -0.026629984 -0.0050854087 -0.049489655 -0.02328731 0.018967342 -0.0038178451 -0.006641306 0.04616824 -0.02836839 0.0011376254 0.020490658 -0.037652563 -0.037218727 -0.040910732 0.016009223 -0.03291758 0.040097285 0.012223721 0.029759888 0.008537341 0.017835941 0.049119983 -0.030726671 0.0048123226 0.041049216 0.024961438 0.044092547 -0.0018281937 0.01645584 -0.012086071 -0.045150507 -0.015252065 0.039332394 -0.04353107 -0.032184124 -0.020237625 -0.048355784 -0.026259053 0.007799566 -0.04742377 0.017016683 0.0408335 0.008468498 0.0044618137 0.045574214
symptoms -0.004559137 0.034455586 -0.047484316 -0.009180617 0.034166608 -0.02817142 -0.048895586 -0.048452724 0.042652395 -0.044995904 0.016757559 -0.029413342 -0.01912204 0.0408397 -0.0018668771 0.013454143 -0.036337446 -0.04622394 -0.024058808 0.036224592 0.008830786 0.017914925 0.019353572 -0.04894035 -0.033970132 0.03260589 0.020658445 0.01693337 0.010807645 0.038226616 0.0030478947 -0.025762225 0.00017968565 0.03814098 0.03798834 0.04246295 0.025818657 0.02388307 9.608269e-05 -0.032831386 0.017393623 0.02835479 0.027132 -0.013347603 -0.039334822 0.04053886 -0.025489008 0.031668033 0.04577757 -0.034236036 -0.032983266 -0.049207117 -0.042624485 0.0021420605 -0.023374796 0.03256512 -0.035421573 0.041671406 -0.015641082 -0.032062486 -0.008018196 -0.027186656 -0.04952072 -0.033549443 -0.034991585 -0.025021017 -0.025037313 0.032590482 -0.033188738 0.019991066 0.02465928 -0.036919285 0.04894832 -0.040332437 -0.031611897 -0.017621648 -0.0022422783 0.040114317 -0.011678468 0.022681866 -0.041124023 0.043518674 0.024435822 -0.038083185 -0.020181095 -0.023968125 -0.015018344 -0.030529404 -0.0007346161 -0.030802345 -0.011555813 -0.04433936 0.0043768063 -0.023381103 0.031897876 0.014662351 0.013833474 -0.01101755 -0.036514126 -0.0209867
while -0.002241958 0.009940028 0.030718151 -0.047345698 0.009564757 -0.045524802 0.01055529 0.020205464 -0.015977312 0.04709926 0.029280994 0.012537111 0.030944053 0.014223818 0.042632345 -0.02669859 0.035582315 0.008315302 -0.007902611 -0.018612184 -0.029678285 -0.025342597 0.015768323 0.025912669 -0.047595847 0.019883823 -0.025052488 0.0025299303 0.038520362 0.0043583624 -0.030674828 -0.023923947 -0.026288688 -0.0011009201 -0.041861832 0.016886119 0.046590354 -0.0056761876 0.018709127 0.021517668 -0.0065589435 -0.04341457 -0.012035798 -0.0011518374 -0.019249832 0.000104643404 0.013495151 0.03177804 0.03758594 -0.029488588 -0.037307166 0.022745583 -0.027353061 -0.0494802 -0.022950603 -0.039787553 0.042265642 0.037732173 0.04579545 0.022958707 0.0124669075 -0.031676367 -0.047437407 0.023576107 0.016424153 0.019867372 -0.04487064 -0.0051170364 0.005573105 0.00039607286 0.028993193 0.045338 0.0455405 0.00082569197 -0.027371777 0.045209575 0.022549856 0.014097299 -0.011998534 0.0075245015 -0.00357572 -0.049550056 0.03373802 0.019087043 -0.042195775 0.006608747 -0.013969101 -0.03208629 -0.031849004 0.0047119036 -0.008417953 0.013506565 0.011812232 0.030676793 0.0060187466 0.019534852 0.027430598 -0.036846578 0.036218885 -0.009630073
3 -0.014159001 0.0028943531 -0.035816528 0.044699553 0.035348643 -0.01976763 -0.013627149 -0.0009688139 -0.025471175 -0.02180704 -0.03950559 -0.020994354 0.011716388 0.035569433 -0.018123161 -0.00766306 0.03471755 0.026827548 -0.029388381 0.042076115 0.0016000494 -0.0055199973 0.01600999 0.03688934 -0.0044685006 0.003550399 0.01182301 0.011060774 -0.044130445 0.037567582 -0.008741509 0.043209974 -0.0100026615 0.034118388 0.04453559 -0.0036635175 -0.030989183 -0.011507131 -0.025547076 0.04618671 -0.02287588 0.041569266 -0.049561407 -0.047566127 -0.032010246 -0.0057429187 -0.044238605 -0.046524514 0.010966741 -0.009252142 0.0087515935 -0.029832209 -0.020766461 -0.026703227 0.02628554 -0.02602694 -0.015590321 -0.03786094 -0.040180136 -0.03521905 -0.016921662 0.04075278 0.018181708 -0.045318235 0.03215171 0.0038199425 0.005552314 0.023419987 0.032571506 0.043701876 -0.010755789 -0.035336602 -0.02835213 0.036465596 -0.001969792 0.026210811 -0.004374385 -0.013616882 -0.025461828 -0.0008966327 0.0027912967 -0.002199173 -0.01639209 -0.020909822 0.008940913 -0.031087756 0.026690152 0.011248063 -0.0073689446 0.025759924 -0.020628834 -0.036919367 -0.047290146 0.007304609 0.03764287 0.023549508 0.041374993 0.025452916 -0.0258075 -0.036969922
this 0.024361264 0.031073857 -0.027036881 0.0068040267 -0.046086397 0.040227327 -0.005055856 0.013630997 -0.009421147 -0.034167074 0.030084316 -0.024101377 0.011072874 -0.033736132 0.04262506 0.00083031505 0.04426158 -0.019568611 -0.026184488 0.0057926998 0.013498653 0.049679447 0.0052132234 -0.04574001 -0.026095271 -0.049555242 -0.008300375 0.034642365 -0.017301 -0.04762256 -0.028806532 0.04852194 0.004469108 0.031594183 -0.03959862 0.010135196 -0.008588649 0.0030676015 0.0032966733 0.011047494 0.027091932 -0.034655057 0.013752405 0.017596912 0.01467612 0.025998656 0.030873392 0.047339294 0.03373501 0.036453974 0.020951424 0.01571611 -0.028159237 0.015833925 -0.032829955 0.045322385 -0.0227484 -0.0155012235 0.044245724 -0.023660613 -0.016417123 0.006382011 0.04457121 0.013738643 0.02975354 0.006404996 0.035459433 -0.042284347 -0.03569709 -0.038556587 -0.042392492 0.0014182925 0.022302043 -0.019105006 -0.01789222 -0.033461273 -0.0057858713 -0.025280977 -0.039602995 -0.049445238 0.027986858 0.014118973 0.015120711 -0.026091708 0.040753316 0.010284137 -0.036006927 0.042015124 0.04486188 -0.0007644892 0.004158031 -0.0061107874 -0.020817472 -0.046869602 0.025533307 0.029214922 -0.038784824 0.03429537 -0.04391079 -0.022441495
that -0.031324722 -0.031924166 0.029797088 -0.04317013 -0.037815727 0.02259219 0.013444554 -0.007061649 0.029487584 -0.017756842 0.04591235 0.020363573 -0.018521715 0.037440527 -0.03156866 0.016186927 0.022782419 -0.004847467 0.0408761 -0.026466334 -0.009064235 0.028464232 0.03068069 0.00425018 0.012659501 0.044589188 0.0052092895 0.030035269 -0.034252573 0.045865107 0.018029261 0.01402979 -0.03369056 -0.013054788 -0.009688485 -0.009383619 0.008981146 0.025351156 0.012407254 -0.021747017 -0.041065432 0.022330727 0.0052060857 0.02834702 0.037201274 -0.028497411 0.045802023 0.044901934 -0.047143485 0.032864895 -0.023622548 -0.018661879 0.049783442 0.045529712 -0.013829254 0.028695535 -0.042324543 0.022913907 -0.0033369176 0.0048980936 -0.02732476 -0.023616243 -0.010092091 -0.049103547 0.039404694 -0.030174876 -0.03260087 0.010691367 0.008995842 0.015639473 0.04937831 0.018817846 0.02715936 0.04091772 0.016609374 0.02245361 0.014150474 0.0036040172 -0.0166968 0.010311533 0.020090807 -0.047596682 0.03110024 -0.03014245 0.027340364 0.039371144 0.037721995 0.0046194308 -0.026296927 0.013019491 -0.03134053 -0.039170206 -0.023258805 0.041766968 -0.017396115 0.03341839 -0.031350195 -0.011869989 -0.019235838 0.008790087
can -0.0036405325 -0.0061612353 0.04822704 0.04663569 0.045718934 -0.0055834167 -0.04311074 -0.006912768 0.020177487 0.022739518 0.049152564 0.021405008 0.031669352 -0.046322085 -0.043613292 0.022762943 -0.0321941 0.024680797 0.036005322 0.0065448284 -0.023563696 -0.048635997 0.019018542 0.008999668 -0.042340647 0.0029000416 0.0054058433 -0.038054504 -0.025809264 -0.016651131 0.019423727 -0.020268394 0.032675687 0.029108096 0.0047696233 0.02146354 -0.012466706 -0.009641252 -0.039303552 0.036582384 0.015285742 -0.033456124 0.0046803355 -0.04642681 0.033009637 0.021340076 -0.0011875741 -0.024637913 0.037989113 -0.007936776 -0.039745234 0.035764184 -0.022580279 0.0065444224 0.04429971 -0.005270265 0.029426578 0.0116530545 0.04159533 -0.0453802 0.0018467531 0.03217076 0.019977357 -0.022502517 0.022946727 0.0057261474 -0.04119153 0.03684162 -0.011827659 0.046496917 0.007619571 -0.027104009 0.0146292485 0.04208399 0.027460966 0.048360918 -0.045093883 0.0243713 0.014894474 0.039960194 -0.0027086139 -0.022056842 0.010011721 0.029000048 0.042455044 -0.006481506 -0.03965918 0.047079276 -0.0035029538 0.0477381 -0.03442446 0.026453149 0.027698103 -0.041713882 0.049097408 0.0018965825 0.049123142 0.00562948 -0.028675927 -0.009048067
in 0.009682845 -0.009345137 0.0018729344 0.032521877 -0.0012799501 0.0031518936 -0.04888686 0.037175942 -0.048051905 -0.044923484 0.023808453 -0.036065362 -0.017999876 -0.013511501 -0.013741635 0.016024854 -0.011366595 -0.0052267537 0.0385868 0.016103137 -0.043704476 0.0031117685 -0.017289124 -0.03198769 -0.04295795 0.04786234 -0.02201184 0.01747178 -0.017915823 0.029976938 0.019549798 -0.04128326 0.02456117 -0.03229449 -0.0145853385 0.04726355 0.022387315 -0.01115042 0.039275374 0.039900374 -0.044294383 -0.038902283 -0.023041034 0.032284092 0.02465618 0.010135792 0.048473332 -0.0012940988 -0.046418548 -0.025402213 0.026643936 -0.003351368 0.036793206 -0.0063942187 0.0031239502 -0.025472367 -0.044492375 0.024206545 0.020399738 0.00046040863 -0.041258585 -0.04202633 -0.039475717 0.009622563 -0.040017784 -0.044391967 -0.045616474 -0.0042819157 -0.0006660335 -0.029079843 0.010080278 0.027408306 -0.040225506 0.049039993 0.008190334 -0.0033935308 -0.0017621294 0.03431077 0.04318298 -0.00575478 -0.029196167 -0.025651265 -0.033834267 0.021384034 0.004572034 -0.013707556 0.003068626 0.011483837 -0.047824334 -0.03690958 0.0006924756 0.008144867 0.029812422 0.0187946 0.0046427622 -0.0070639476 0.019736622 -0.03178271 -0.03429635 -0.0014886484
major 0.030671868 -0.014824331 -0.0043276064 0.03341278 -0.02243011 -0.02624315 0.00049679354 0.028068092 -0.041529715 -0.040949427 -0.029562343 -0.04395014 -0.017763115 -0.044212557 0.003806997 -0.048802387 0.023137975 -0.011351753 -0.0013421066 -0.043936323 -0.010389842 0.039396692 -0.022119034 -0.036911488 -0.0056748167 0.003549315 -0.041760255 0.03987891 -0.0304214 -0.026340796 -0.019546842 -0.02302835 0.041612137 -0.01260649 -0.03830067 -0.038775574 0.0002493374 0.0400494 -0.030690385 -0.0493055 -0.027153242 -0.031951025 -0.047960043 0.02553128 -0.029266262 -0.017420243 0.009773053 -0.0091066845 -0.0030461438 -0.03883631 0.024668742 0.015179727 -0.033994604 0.015002761 -0.0138682835 0.03653169 -0.03476871 -0.028578056 0.029459659 -0.021738458 -0.02387867 0.03253453 0.04780854 -0.030515159 0.013787951 -0.045339108 0.03901035 -0.031261623 0.0063190833 0.031141546 -0.044903565 0.014719497 -0.02074852 0.040275548 0.034468506 0.03890128 0.026778232 -0.045043457 0.015714716 -0.005347561 0.04325178 0.010005951 -0.010927487 -0.009449698 0.0471511 0.020306598 0.030517075 -0.012397252 -0.01978066 0.020357851 0.0004563704 0.0004820451 -0.03285849 0.03408512 -0.0054361336 0.012622666 -0.04305431 0.005551897 0.0009279251 0.014749143
driver 0.046632122 0.042611014 0.040043678 0.02115095 0.036776748 -0.002173327 -0.026841033 -0.049144354 -0.047976732 0.00795915 -0.048607077 -0.0028109439 -0.04534285 0.048191044 -0.02615285 -0.025238931 0.020735871 -0.02222972 0.020668697 0.03284892 0.028120127 -0.04677092 -0.0053527467 0.040601384 0.042535912 0.014523748 -0.022428501 -0.046242572 0.030882511 -0.031253293 -0.020453287 0.034656946 0.0061703213 -0.027928293 0.0017676353 0.034777496 0.03101572 -0.032004513 0.031911884 -0.036773898 0.008655645 -0.037664138 0.008295797 -0.027104665 0.00072319433 -0.03980248 -0.031439558 0.012452222 0.047347534 -0.045642387 -0.024601078 -0.013326965 -0.021890724 0.046255145 -0.014270436 -0.038042463 0.029896047 -0.007977627 -0.031084228 0.040316556 -0.0019988194 0.005833946 -0.0052111633 -0.0454438 -0.039788008 0.0064842217 -0.03905052 0.015898589 -0.048867643 -0.032537915 -0.04739393 -0.00547453 0.016798247 -0.043471027 -0.03379184 -0.022282481 -0.04234922 -0.04035859 -0.04549879 0.039168183 -0.026976336 0.011476718 0.042348865 -0.009621751 0.038589668 -0.009816207 0.036715817 -0.032828916 0.0006402731 -0.04297434 -0.0426942 -0.012699485 0.00043984503 -0.03320067 -0.0289364 0.047743153 0.034832884 -0.0006870255 0.029770326 0.049451817
number -0.017938375 -0.040571906 -0.006790329 -0.0482481 -0.008076131 0.0044705644 -0.0063851587 0.015987683 -0.03116796 0.046989787 -0.01345991 0.009894859 0.010556616 -0.0249277 0.040197764 0.031582464 -0.032269776 0.024065647 0.038231645 0.040541206 -0.019113708 0.004320752 0.04828919 -0.0011645667 -0.028394056 0.019517008 0.042858485 -0.04625343 0.043832634 -0.045784023 0.0011953823 0.0062080137 0.047719028 -0.006614782 -0.0045385584 -0.0475744 -0.04941937 -0.007928789 0.018967453 -0.020314528 0.016147766 0.0126688145 0.047560405 0.016021702 0.021200765 0.046261083 -0.0060608983 0.010633778 0.04564685 0.022110406 -0.04128953 -0.046500992 0.016820345 -0.021355093 -0.027099598 -0.02066852 0.03568616 0.015810255 -0.016730309 -0.004903637 0.03766915 0.024275634 0.022265386 -0.01855991 -0.015805949 0.0032003894 0.0020376556 0.01355261 0.01732174 0.046106163 -0.047623064 -0.032034636 0.005080484 0.011059415 -0.04795004 -0.021836698 0.025242854 -0.040682234 -0.025879418 0.012212954 -0.0018435009 -0.040503226 -0.03651444 -0.0101314895 0.012808774 0.030747544 -0.020359218 0.03478991 -0.017428529 -0.0355955 -0.040217746 -0.0032023787 0.026387762 -0.024812782 -0.011379816 -0.03927548 -0.020995904 0.012514222 -0.011783123 -0.041300558
2 0.045459 -0.0033541918 -0.033052884 -0.030334806 0.0089876875 0.011672057 0.0019994378 0.04113022 0.00398897 0.04329293 0.04878087 0.0035110712 0.039137926 -0.0028140545 0.004411757 0.0025335066 0.044085454 -0.033590876 -0.04182986 -0.033342794 0.036974277 -0.047656108 -0.037543584 -0.020791722 -0.017669667 0.015770208 -0.029210294 0.040584397 0.033102166 -0.005133856 -0.013065111 0.016116988 0.0070295446 0.044080045 0.016289677 -0.013302445 -0.0072982796 0.01613878 -0.012716055 -0.025361812 0.0039288774 0.019350339 0.03052603 -0.024979448 -0.0388471 -0.007252313 0.042068515 0.042829577 0.017658126 -0.022123098 0.010399044 -0.008832883 -0.009389628 -0.012511708 0.002546154 -0.04543058 -0.02344427 -0.007932652 -0.035235275 0.032837477 -0.036325466 0.033097792 0.01775359 0.04236113 -0.01044929 0.020083558 -0.0014276505 0.003630139 -0.035143018 0.013369564 0.03367013 -0.0014456883 -0.015051641 0.024146449 -0.039505027 -0.013528526 0.00320673 0.01986755 -0.015160691 0.00433426 0.019887034 -0.026121592 0.029221404 0.038020264 -0.013136756 0.0005351417 0.023423102 0.018971194 0.023478571 -0.024311496 0.02600563 -0.0047157034 -0.029544687 0.010859143 -0.040426932 -0.0073648803 0.04299419 -0.024377216 0.01624978 0.029161002
speed -0.007978689 0.015571836 0.012005914 0.034852136 0.00210651 -0.039804053 0.0050644986 -0.035028875 -0.0067361705 -0.010660745 0.021630052 -0.017076503 0.024918322 0.03968134 0.04147767 0.012221217 0.0032761209 -0.019477619 -0.022449708 -0.0349885 -0.04302298 0.00263213 0.036007296 0.0011755452 0.038454797 0.04348487 -0.029901588 0.035277676 0.045166086 -0.0037737377 0.0075031035 -0.0063673966 0.03327829 -0.00699104 -0.04494531 0.011979271 -0.030424643 -0.015838802 -0.013455223 0.003913544 -0.021875096 -0.004435241 0.017002475 -0.041802384 0.012600753 -0.014742088 0.024762604 -0.041675128 0.028667662 -0.032214798 0.017706249 -0.007621169 0.042278673 -0.0433926 0.014734518 -0.011665486 -0.018923938 0.012726117 -0.034187853 -0.028821373 0.020901967 0.00010244921 -0.014424097 0.011758756 -0.042191435 -0.031163765 0.022589412 0.034290936 -0.03182663 0.025713574 -0.044891085 0.030818712 -0.0067051053 -0.01404513 0.041793827 0.029302467 -0.013103344 0.010187399 -0.011994779 0.0058318265 -0.017855264 -0.04047557 -0.007799614 -0.02327087 -0.029558444 0.011221636 0.019623946 0.034059253 0.036426533 -0.015964687 0.045056727 -0.01763754 -0.025129294 -0.0010930523 -0.0147462 -0.034187376 -0.03043337 0.017024543 0.007758271 -0.044433404
an 0.027284969 -0.026693298 0.04241189 0.016266871 0.030253027 0.023989271 0.026013006 -0.01595378 -0.017916847 0.009512246 0.012231968 0.029243719 -0.048203897 0.04807521 0.03489654 -0.038084187 0.01835401 0.0444065 0.041184414 -0.024187757 0.013756108 -0.01307746 0.04333167 0.014119718 0.045031335 -0.028875649 -0.0080579035 0.014228199 -0.020254303 0.042907562 0.036369327 0.042184997 0.0017940179 0.015315387 0.0024937019 0.032940138 0.01617011 0.0016723387 -0.022807812 0.033470977 0.028704632 0.04909792 -0.03305967 0.0026916862 0.048698712 -0.013130296 -0.031302214 0.023695376 -0.014685154 0.042418253 -0.0057046413 -0.023232425 0.048428897 0.0107929595 -0.040916085 -0.0038335808 0.00055823475 -0.004236914 -0.036444593 0.017805938 -0.009877335 -0.0016663782 0.013661195 -0.039856136 0.021972407 -0.038359296 0.010015201 0.03567792 -0.008428536 -0.029300893 -0.025860442 0.045123782 -0.0389529 -0.035721637 -0.028668273 0.036976803 0.0004966967 0.008666016 0.02090985 0.03078505 0.0033408627 -0.047063626 0.034405682 -0.04742385 -0.0481884 0.03849406 0.03973205 0.03026959 0.03254762 0.00829947 -0.043003883 -0.015213478 -0.00034613535 0.01868708 0.027677525 0.025439989 -0.017156005 0.0046628006 0.0426736 -0.000821054
important -0.005367078 0.048167203 0.022988413 -0.0072406307 -0.022512853 0.038471285 0.0034873858 0.035391953 -0.02947612 0.029943254 0.04769479 0.023221862 -0.049520757 0.03535528 0.001454927 -0.028500915 -0.03777013 -0.022914303 0.019845556 -0.01683233 0.0070041195 0.02407575 0.04100522 0.010990776 0.003719844 -0.016797412 0.0009344816 0.034342337 -0.034820996 -0.037931226 -0.012853302 0.006892182 -0.029671956 0.032122944 0.013321225 -0.022863222 -0.004236173 0.027014028 -0.01232525 0.021754388 -0.041741885 0.004117228 0.0115221515 -0.0017505772 0.029816512 -0.0019070879 -0.042278744 0.045908604 0.019311849 0.0033670664 0.004663456 -0.007530667 0.031708013 0.009867169 0.04074773 0.011628009 0.020138267 0.029170562 -0.008508123 0.034593586 0.044396017 0.02666438 -0.03574145 0.014853623 -0.008117855 0.033149276 -0.035317384 0.00917846 -0.035104346 -0.026328195 0.020284142 -0.023820449 0.011613809 -0.047126245 0.031129967 -0.03680979 -0.010257196 0.02773061 -0.042304136 0.02548914 0.04600272 0.047871653 -0.012839984 -0.032369517 -0.006279789 -0.039562248 0.04446849 0.022318374 -0.014342092 0.01860625 -0.005877398 -0.0018790849 -0.014625214 -0.027136385 0.011301577 -0.0005567074 0.042134177 -0.0014023297 0.010369409 -0.046360314
point 0.001149632 0.0048212186 0.0493992 -0.0059386604 0.036111724 4.6037138e-05 -0.04584819 -0.0451321 0.014865968 -0.0014023557 -0.041645847 0.043259885 0.0319002 -0.048731603 0.026779283 -0.0010339618 -0.024908936 0.010220099 -0.007971276 -0.028637398 -0.02848587 -0.037435435 -0.048769105 0.007565737 0.041148555 -0.011473715 -0.04756383 0.012638453 -0.018483628 -0.019337714 -0.03894664 0.016301941 -0.002443444 -0.013247035 -0.035850514 -0.009306572 0.04882456 0.026198778 0.04629728 0.027207505 0.031605396 0.049579177 0.007837724 -0.028082311 0.002200842 0.029446792 0.049188044 0.0154741295 0.0074680224 -0.0043961294 0.04923941 0.021005955 -0.024633145 -0.0032618865 0.007675696 0.049671743 0.03932829 -0.046353783 0.017039012 0.022676382 -0.047759235 -0.0018580332 -0.002964247 0.038577463 0.020920727 -0.03106531 -0.017506909 0.027673196 0.049325023 0.04477569 0.018860724 0.028533425 0.045026038 0.008470427 0.025943305 -0.021413375 -0.014641203 0.026057612 0.0051943436 0.017288316 0.04424883 0.012700882 -0.04549253 0.02403206 -0.02278167 -0.0395159 -0.0074166656 -0.03119948 0.02716538 0.025270786 0.04773501 -0.0063559525 -0.049377836 -0.016636826 -0.028319074 0.014786791 -0.04642099 -0.029363334 0.0011489876 0.022780944
difference -0.011293303 -0.012672365 -0.027363135 -0.046516657 0.021722864 -0.042773616 -0.03384217 -0.037947964 0.018735196 -0.0026449934 -0.0050487295 -0.031208945 0.032046143 0.022496272 -0.008724619 -0.0019371025 0.04112426 0.006896317 -0.021814728 -0.039258968 -0.04778118 0.00043020397 0.026942525 0.02757832 0.0127236135 0.02051938 0.0038559064 -0.049003042 0.03537296 0.037655365 -0.0042170174 0.021110106 0.043977108 -0.032865573 -0.0077335835 -0.036596406 -0.008938111 0.045768622 0.046979714 0.016471814 0.04091466 0.04098815 -0.04715338 0.04219759 0.013579581 0.038805377 0.043196682 -0.030442704 0.023285005 -0.0120892525 -0.017496835 -0.042750467 -0.001446832 -0.00018242747 -0.037338983 0.031920638 -0.033674374 0.01823758 -0.012603797 -0.028338408 -0.03679035 0.021825876 -0.028267467 -0.021847343 0.006747447 0.04630338 -0.049846936 -0.01668638 0.048663106 -0.029801358 0.0013681278 -0.009481262 -0.024203097 -0.031080617 0.03137305 -0.020039368 0.011963118 -0.026836682 -0.037359487 0.03414954 0.041877057 -0.02190199 0.020112228 0.027823795 -0.047499944 0.011802245 0.02511562 -0.02622267 -0.040368654 -0.039965343 0.033291552 0.009501517 0.04974294 -0.02406695 0.0069899447 0.023709822 -0.00065597147 0.020142447 -0.0017593503 -0.002713047
two -0.0055489056 -0.035989046 0.014351439 -0.0007974021 -0.03987534 -0.04566164 -0.024040401 -0.023579169 -0.020049667 -0.016239345 0.00805961 -0.023591364 -0.022148395 -0.030624056 0.0341311 -0.039219726 0.0049425587 0.03504679 -0.027474046 0.028483342 0.011649955 0.024954882 -0.029614342 0.03521483 -0.03452772 -0.040277205 0.0017665736 -0.04100442 0.012318671 0.006536234 -0.025130188 0.022810724 -0.0027406812 -0.027637267 -0.03672842 -0.04573978 0.022083309 0.0041173473 0.025694858 -0.046369314 0.032124106 -0.011638153 0.032388303 0.019272316 -0.034361064 0.034405496 0.04115689 0.007434368 -0.020964755 -0.038382065 -0.022937512 -0.03461057 0.03928462 0.04385611 -0.026996804 0.037954602 0.010869779 0.0062470064 0.030437294 -0.00046885014 -0.037087966 0.0058702826 -0.017228603 -0.013921738 0.04691792 0.047340933 0.010558523 -0.015921332 -0.04682323 -0.026299655 0.04488193 0.045891497 -0.019722534 0.0073145404 0.027805757 0.02691025 0.03164706 0.017770853 -0.021060301 0.02101462 -0.037567317 0.0244581 0.022451866 -0.0009716265 -0.049260832 0.014995065 0.0304471 -0.018942868 0.042597894 -0.037902057 -0.008258749 -0.049909998 0.0063380823 -0.04187267 0.00028438494 0.0041215196 -0.031734515 -0.021680582 -0.046699382 0.036796454
has 0.00055430084 0.032866184 -0.011958491 -0.0015491843 0.009544004 -0.0016250238 0.019001354 0.02565417 -0.04447757 -0.019299304 0.024613332 0.030415658 0.02329589 -1.629442e-05 0.0067379847 0.02491505 -0.0123016015 0.03638952 0.014575709 -0.032483175 -0.02600416 -0.030824317 -0.017467916 -0.0022947416 -0.011964869 0.028599028 -0.049728166 0.004144121 0.027221572 -0.03801199 0.0021706596 0.040616516 -0.014767099 0.024886813 -0.016935132 -0.004725814 0.015083823 -0.018634893 -0.025513101 -0.03732244 0.035778593 0.030683402 -0.03046149 0.018939983 0.027091566 -0.013009526 -0.027916824 -0.04439136 -0.0355515 -0.018309653 0.01477525 0.038615692 0.016166333 0.015563499 0.02746642 -0.039994825 -0.029683972 -0.019997776 -0.044509985 -0.012655426 0.015302721 0.0059097186 -0.00096128136 0.036142115 -0.03210695 0.03538699 -0.014404558 -0.030575741 -0.013916563 0.03548089 -0.01426537 0.0058138855 0.04308064 -0.032857396 0.014117632 -0.008623969 0.04949147 -0.011815272 0.01675022 0.041033316 0.0036933199 0.031193998 -0.023794914 0.04903814 -0.045016695 -0.022262037 -0.046512008 -0.024377538 0.007975876 -0.030385256 0.019802999 0.03114399 0.021283064 0.03280331 -0.0043432005 -0.012124337 -0.010333516 0.0242402 -0.019220984 0.03309429
median -0.049868118 -0.011841167 0.018941943 -0.025432302 -0.011915304 0.049818944 -0.013661813 -0.005717717 -0.016559612 -0.004220236 -0.04653554 -0.034372784 0.026584271 0.00014562532 0.04740343 -0.009910524 0.032390248 0.0019101389 0.018147934 -0.036315046 -0.03410621 -0.03540256 -0.011970125 0.048076738 0.006635748 0.011345733 0.02712256 -0.040517855 0.0138583295 0.030713465 0.0076997764 0.042614784 -0.0142841935 0.013935957 -0.026682615 0.013230931 0.039503682 0.042021666 0.015766453 0.0023230799 0.030437652 -0.0314096 -0.018830443 0.025247369 0.03654447 0.022022042 0.009489536 -0.018808115 0.04975048 0.03145535 -0.04879756 0.03308468 0.022771087 -0.047866344 0.03835329 0.022896376 0.009536706 -0.023083879 -0.0048340075 0.042040255 0.021706317 0.0032271743 -0.0424253 -0.013961088 -0.006004572 0.0048033483 0.018390644 0.035622966 0.0077472553 -0.03581246 0.0064495318 -0.024436628 -0.009192385 0.019959558 0.04593469 -0.012502085 0.014698911 -0.014072001 0.02999771 -0.034946837 0.04340822 -0.014497448 0.0065763965 0.026609387 -0.030832434 -0.0013632886 -0.026485419 0.037803102 -0.018680025 -0.045883227 0.01933683 -0.03304209 -0.043804932 0.035595205 -0.010172404 -0.004132509 -0.010360502 0.02590486 -0.023438646 -0.007391859
incubation 0.015346516 -0.040148307 -0.008585177 -0.032934763 0.03649867 0.009269308 0.01628692 -0.02071848 -0.028680062 -0.0053865686 -0.040151037 -0.022428406 -0.04725156 0.010743596 -0.029402627 -0.027565612 -0.044018507 0.042055514 0.04751781 -0.00078712776 0.0216627 -0.00070369244 -0.01019429 -0.0014193282 0.012889076 0.00520017 -0.041471124 0.010108661 -0.035807323 -0.008687712 0.014037099 0.010347795 -0.021346688 0.028847013 0.04187726 -0.007334113 0.026033137 0.022489678 0.04119811 0.008742116 -0.023044074 -0.0075295456 0.011206768 -0.012154888 0.026595939 -0.042603016 0.028897133 0.019780543 0.011770748 -0.026748968 -0.049559783 0.018362451 -0.036902856 -0.04284277 0.017886046 -0.021508051 0.002498366 -0.030647112 0.046773862 -0.020034015 -0.0021901242 0.018230978 -0.03752632 0.038426783 0.023734536 0.00814829 0.0070901886 0.024340343 -0.01523304 0.023864318 0.023192141 -0.014102064 0.009338401 -0.04592651 0.012432136 -0.032923497 -0.010425556 -0.022669245 -0.014952421 0.010597728 -0.030106712 0.031385873 -0.028990913 -0.03341522 0.03689761 0.012817685 0.048927132 -0.021059275 -0.009952139 0.0483655 -0.0413213 -0.005196832 -0.01957102 -0.0065360554 -0.022971844 -0.048090722 0.018260334 -0.022813667 -0.015919544 0.04518831
period 0.035702158 0.0139415525 0.020792011 -0.022655798 -0.032795668 0.020596746 -0.017301023 0.019315574 -0.035259463 0.047158074 -0.007137645 0.027623449 0.04173969 0.028794277 0.01152996 0.023244608 -0.04583024 -0.0061135404 -0.025656914 -0.026071131 0.040534858 -0.02145703 -0.043027963 0.046322707 0.029372025 -0.015892528 0.019632462 -0.043034136 -0.024754917 -0.009387255 -0.002733469 0.010405909 -0.031309023 0.03272626 0.010806035 0.019738104 0.036045376 0.02636138 -0.03917079 -0.020620538 0.017525744 -0.011084735 0.028474461 -0.020467414 0.0011277199 0.033580806 -0.015784286 0.03151386 -0.013442706 0.02281243 -0.034530293 -0.015426554 -0.012513161 -0.0039662607 -0.03721472 0.023513619 0.048679773 -0.036782194 0.008176934 -0.048541974 0.025522556 0.025272135 0.017825034 0.004398562 -0.0017953888 0.034951065 -0.003119778 -0.0034061074 -0.049432803 -0.02415055 -0.00063128397 0.022876028 -0.033180393 -0.025699377 -0.01830542 0.03790978 -0.019378925 -0.008456208 -0.0017311573 0.011043109 -0.03122207 -0.03148197 -0.000662528 0.02226298 -0.016498923 -0.03779602 -0.005502045 -0.009083174 -0.032090507 -0.049316775 0.04731578 -0.04918754 -0.01139307 0.02348907 0.025703754 0.030078623 -0.038119365 -0.032757543 0.0059083924 -0.012092866
infection -0.026402866 0.033124957 -0.037816655 -0.0377262 -0.019746328 -0.00926771 0.0062689893 -0.006064594 0.0013702288 0.048971187 -0.043392804 0.0010113344 -0.04467089 -0.01589173 -0.027169203 0.0038092248 -0.029734254 -0.003144838 -0.026840556 0.029025566 -0.006795548 -0.0010602362 0.0032163635 -0.013210367 0.0139075555 0.03294051 -0.038997255 -0.00836724 0.025315825 0.045101155 -0.0392252 -0.046144772 -0.018748533 0.045323733 -0.031180978 -0.010646153 -0.045545746 0.036777947 -0.03244312 0.047614444 -0.019775046 -0.048190832 -3.3773482e-05 0.038221452 -0.0052225105 -0.030539501 -0.0128492825 -0.018557847 0.04940707 -0.008698426 -0.048286702 -0.027689278 0.039076243 0.009744346 -2.1480024e-05 0.04512303 0.03524894 -0.034717966 0.025781002 -0.0211241 -0.0045153275 0.033415023 0.040981483 -0.03937906 -0.029853 -0.04871117 -0.017919123 0.016696636 -0.026048172 -0.033097148 -0.03853501 0.033803258 0.0370999 0.008372258 -0.033617936 -0.022510195 -0.010928571 0.04182711 -0.034718286 -0.02291956 0.0022861138 -0.029319584 -0.028932834 0.04830048 -0.043349277 0.040653612 0.019967046 -0.048018064 -0.019123329 0.039612282 -0.022053719 -0.03228978 0.005339466 0.017315898 0.03844497 -0.04655665 0.013672773 0.04123998 0.04241841 -0.01325177
successive 0.04646523 -0.023380399 0.03742775 0.030977678 -0.023286605 0.0013566837 0.019895349 -0.036271334 -0.018164229 0.03947288 0.021175835 -0.02816384 0.021617029 0.042856757 -0.024187684 -0.036108673 0.033021424 -0.049626615 -0.008402564 0.0092617385 -0.03752644 0.040455688 -0.02048396 -0.03746401 0.02693588 0.015928674 0.03807796 -0.006886553 -0.018232156 -0.0354682 -0.015942298 -0.014855802 0.033222917 0.021980096 0.03920487 -0.022405136 0.048284125 0.047974814 -0.001724638 -0.015191387 0.033145774 0.006183125 -0.036622535 0.035924863 0.040403817 -0.009749282 -0.045050193 0.03605816 -0.015710987 0.038875196 -0.034188107 0.019447353 -0.026125718 0.029066812 0.024124276 0.008219838 -0.04132545 0.026974712 -0.02005986 -0.00793954 -0.027160633 0.03922082 -0.018138528 0.006738186 -0.00031442568 0.023485962 0.025921408 0.0020143501 -0.0363762 -0.0052196495 -0.0092154965 -0.032627165 -0.020959819 -0.01327274 0.00090013817 -0.012350012 -0.028782522 -0.0036668666 -0.014264476 -0.004288554 -0.001555156 0.025230136 0.034001198 -0.04780593 0.022284653 0.034112465 0.02571411 0.024023917 -0.020474482 -0.0038491972 -0.0476406 0.005087495 -0.022899484 -0.0026199818 0.022585753 0.029603723 0.020690683 0.030077193 0.036672484 -0.006787382
cases 0.046859566 -0.015504669 -0.024348462 0.014254522 0.015274826 0.04089879 0.049183514 -0.04056574 -0.017859004 -0.015065681 0.019811083 -0.04165391 0.04304209 0.013918053 0.03273504 -0.034972418 0.049395453 -0.04506589 -0.0041660294 0.00072979927 0.046700392 0.019526925 0.0073788166 -0.04807463 -0.0020981543 0.030209612 0.036652874 -0.01258086 -0.0151335485 0.040491227 -0.012486875 -5.310774e-05 -0.043797612 -0.015537679 -0.020184314 0.036510993 -0.0009966008 -0.0030262843 0.016204607 -0.010965001 -0.048845302 -0.039462425 -0.046176173 0.026451658 -0.008713998 -0.02510475 -0.03587643 0.048219297 0.0112890825 -0.03707675 0.04416592 0.044164922 0.02530006 0.029019963 0.02292705 0.03140458 -0.0039059892 0.019904543 0.03912058 0.023498286 -0.034793757 -0.021487523 0.04251046 -0.008518375 0.024034213 0.038922634 0.024677087 0.0073236115 0.03254595 -0.016251814 -0.018482972 0.035923433 -0.035561968 -0.025165439 0.010650337 0.01839422 -0.0020300858 0.020822596 -0.014872909 0.016717825 0.03737391 0.027247872 -0.021964729 0.0042667165 -0.048167683 -0.029434158 -0.009512328 -0.03267274 -0.04751972 0.012929883 -0.033552192 -0.015214942 0.024551008 0.0045372844 -0.049540795 -0.035068084 -0.005746223 -0.037682615 -0.037763022 0.0065199956
estimated 0.014147606 -0.0043945424 0.045061696 -0.00041482598 -0.011933349 0.035359252 -0.0075590126 -0.019261552 -0.02384882 -0.04452888 -0.015388787 -0.049619224 -0.04506434 -0.0010942444 0.008550882 -0.049676944 0.022800434 -0.041084193 -0.025951816 0.037181113 0.030112911 0.029535104 -0.042363107 0.023562301 -0.020850802 0.02825873 0.01927698 0.024069164 -0.028628683 0.016511228 -0.042732548 0.018475678 -0.012118995 -0.011289954 -0.028580273 -0.041285418 0.04806212 -0.04887415 -0.04879594 -0.004475035 -0.03721422 0.02947763 0.007972788 -0.017637469 -0.041262638 0.030400816 -0.032253303 0.009035669 -0.017401803 -0.042630043 0.019548241 0.008783389 0.04005071 -0.02083627 -0.020740999 0.020374205 -0.035082184 -0.031130577 0.016469527 -0.008631635 0.00871389 0.03543893 -0.020390118 0.021823455 -0.012941994 0.036226917 -0.012948133 -0.009120215 -0.008680213 -0.036749672 0.009425104 -0.044530224 -0.014117517 -0.03591373 -0.012206506 -0.014600776 0.01218139 0.038552415 0.028108824 0.031657707 -0.014071047 0.0050526485 0.029609334 -0.040908277 0.0420758 -0.02906028 0.022939388 0.007079195 -0.0033978932 0.03950591 0.00827954 -0.012618113 0.023878459 0.03097767 -0.047101226 0.035275113 0.049513843 -0.0001555793 -0.016603254 -0.017474711
6 -0.0056315176 -0.03899504 -0.016072296 0.017975237 0.021792714 -0.024547352 0.018137839 -0.0069350004 0.039088342 -0.004061222 0.024330426 0.002037786 -0.034407295 0.04822764 0.03328861 -0.01228752 -0.0041722544 0.02786566 0.015859548 0.0007625446 -0.013344489 -0.025527705 -0.038125075 -0.031952165 0.043155875 -0.04639218 0.0011759028 -0.037060358 0.036154542 0.025946107 -0.00023764372 -0.0357231 0.03688122 -0.0046878234 0.03014357 -0.038102616 -0.022162963 0.006703295 0.04579537 0.04953878 0.037808407 -0.0037803538 -0.03431015 0.0031111129 0.008718956 -0.049408175 -0.02722379 -0.03752949 -0.012108147 -0.04006628 0.020009939 -0.012081541 0.0043803565 0.029032398 0.048233654 -0.0048477165 0.018294107 -0.003785491 0.028477501 0.019023683 0.032092262 0.00467702 -0.036839176 0.04357219 -0.010693241 0.034236882 0.012837041 -0.024407506 0.008018948 -0.0031975284 -0.03713751 -0.037829638 0.0059772506 -0.029322553 -0.02314402 0.009636819 -0.00035618618 0.024592284 0.049932454 -0.006335426 0.045978274 0.019595828 0.04334915 -0.022535337 -0.009820521 0.031033624 0.044964816 -0.04146118 0.023218524 -0.020346595 0.031233322 -0.00715537 0.017175924 0.031942856 0.04070666 0.010136247 0.043129686 0.009333778 0.043441597 0.016380142
means 0.030833986 -0.021166444 0.0119498 0.025402274 0.026694749 0.029544856 -0.0011271723 0.042366493 -0.04013102 0.03650928 0.045885827 -0.027595485 0.031247947 0.02953856 -0.012892257 0.013851177 0.031622794 -0.014251314 0.0039108284 -0.0052917227 -0.040519476 0.020749595 -0.005913079 0.047175873 -0.03877443 0.03873774 0.0010307208 0.045490447 0.03506874 0.046883944 -0.002969183 0.011238087 -0.017190695 -0.023020877 0.03620435 -0.041675307 -0.030816508 0.00520562 0.010113381 -0.041950095 0.032714393 -0.022976471 -0.014495134 -0.009298075 0.037832264 0.003259182 -0.015433479 -0.041953493 0.034425367 0.008006703 -0.04170356 0.041657414 -0.008190669 -0.0028924122 0.031514134 0.04062817 0.017278839 0.033910107 -0.0187508 0.04027765 0.04528928 -0.049480714 -0.046892345 0.0059330463 -0.018521585 -0.001999259 0.023375716 0.048580613 -0.04860517 0.042028394 0.019023228 -0.0024350658 -0.032693945 -0.018144261 0.046044145 -0.0350523 0.0055878535 0.03607705 -0.015046217 -0.04008174 0.008719169 -0.0015621781 0.02433746 -0.026754392 0.020151887 -0.04351865 -0.024830306 -0.019641448 0.030519556 -0.0019286871 -0.019567108 0.030396651 0.017801773 0.028222863 -0.0038291104 -0.047419656 0.049897205 -0.03633815 0.034955356 -0.010022391
spread 0.048447277 0.04283234 0.024102736 -0.042510103 0.037528787 0.019909356 0.0072538145 -0.008322883 0.0021338835 0.0039127246 0.048664045 0.024703268 0.0076472983 -0.020342743 -0.02401638 0.04022822 0.038110737 0.017476503 -0.024045026 -0.012895871 0.045037452 -0.042781856 0.007882904 0.032795135 0.048172798 0.032732975 0.01104299 0.020589832 0.034521077 -0.04228703 0.035685766 0.004605688 -0.024590481 -0.003475748 0.038947288 0.018602196 0.042001892 -0.022005904 -0.0008196458 -0.0137322545 0.0035584942 -0.0050868876 0.03325743 -0.009973742 0.029742766 -0.042323794 -0.00967114 0.032274473 0.042511437 0.036538567 0.033703852 -0.026493443 -0.024740338 -0.031716466 0.02770171 0.04367583 0.014010813 -0.036688946 -0.016809367 0.01322199 -0.00027036667 -0.010020316 0.030179117 0.04345933 -0.024422003 -0.008118462 0.036297742 -0.035123874 -0.027621377 0.01847129 -0.014075495 0.03570498 0.033908974 0.017772365 0.0073724613 -0.016655516 -0.045690965 0.040080633 -0.04192561 0.0033681765 0.025599208 -0.0041515715 -0.04414587 0.046426263 -0.027992273 0.0090379715 -0.033142805 -0.043676592 -0.0046681874 0.019784477 -0.018597223 -0.015778422 -0.03782835 0.0010545962 0.004671775 -0.03396976 0.0052299015 -0.046809565 -0.036587466 0.036825906
faster -0.034730874 -0.037810553 -0.017156731 0.040887956 0.0063607916 -0.027040292 -0.02680998 -0.038327314 0.006825935 0.032618072 -0.018102646 -0.0002905503 -0.037480354 -0.03661878 0.020491567 0.030751612 -0.04215871 -0.04416094 0.03749383 -0.023882437 -0.032672524 0.040673915 -0.032316342 -0.01341822 0.033294026 -0.042445768 0.028819595 -0.048431326 0.024378408 -0.04091997 -0.021310879 -0.035659753 0.035200406 -0.035922002 -0.04101465 0.011610877 0.0058492795 -0.03540343 0.04216626 -0.03993529 -0.004844986 -0.03778944 0.019683983 -0.043525543 0.02259649 0.028093647 -0.030865002 -0.043163147 -0.021489525 -0.0027336106 -0.031607345 -0.00819131 -0.040369667 -0.026804721 -0.0077360384 -0.035246085 0.00448364 0.0038777366 -0.009590827 0.014027003 -0.044009067 0.023947034 0.0030711181 0.010821413 -0.023324503 0.009001303 -0.01908872 0.04250774 0.038157646 -0.015789367 0.015314173 0.0047395714 0.02012689 0.03133792 0.02285738 -0.029351164 0.04059532 -0.013387583 -0.0009861216 -0.03817941 -0.02599032 -0.044363666 -0.005035378 -0.025291681 0.008505665 -0.021941805 0.02781019 0.03765018 0.038947668 0.024137411 0.010236811 -0.033821844 -0.027569724 -0.036714412 -0.029716207 -0.03428234 0.02880342 -0.04763018 -0.03963493 0.013836477
further 0.039561037 -0.0010409467 -0.01745075 -0.037187744 0.048187364 0.04654536 -0.002533473 -0.004998397 -0.0142372735 -0.02555207 0.046428327 0.026782382 0.030636024 0.020968746 -0.022681404 0.010622501 0.046158437 0.031535257 0.0053319447 0.032575157 -0.030505825 -0.027386785 -0.0009963028 0.0044488683 0.035280097 0.04431348 -0.01446433 -0.02393936 -0.01260085 0.0074319467 0.037071493 -0.036374997 -0.019473648 2.4996698e-05 0.008391608 0.007940065 -0.00025369972 0.030329075 -0.0032763109 -0.01602503 0.022533964 0.039867584 0.044184033 0.04651617 0.019461904 -0.007309735 -0.045901813 0.0060811527 0.044440296 0.019901786 -0.013220154 0.03432033 -0.04941949 0.030424904 0.038293134 -0.0014519915 -0.024912262 0.023778941 0.034735825 -0.015655112 -0.048647728 -0.018740058 -0.019956553 -0.00077843666 0.027991597 0.0013548136 -0.033988714 -0.013884891 0.0127262585 -0.0018939376 -0.04753212 -0.031009614 0.04360732 -0.049899198 0.0033128373 -0.039685287 -0.0034518726 0.020852994 -0.009337522 -0.032049432 -0.0025286078 -0.03857384 0.02529354 0.04136009 -0.014901865 0.00489676 0.00082532316 0.021018114 0.026696328 -0.045827985 0.037263464 0.012298562 0.039401796 -0.0063949935 -0.022430433 -0.006414734 -0.042334534 0.040060412 -0.007883705 -0.014248632
first -0.043146648 0.037964556 0.0438617 0.031752612 0.019915912 0.00276668 0.026701774 -0.017106067 0.018154513 -0.044671692 0.00021941587 0.0005203113 0.0044668205 -0.040060364 0.006804727 -0.038146187 -0.0067262873 0.04307704 0.025131952 -0.019735027 -0.010222781 -0.041540693 0.016175535 0.046554197 0.040520202 0.03098799 -0.007413447 -0.038912058 -0.01579051 -0.028166974 0.045272414 0.022675503 -0.034428023 0.022314597 0.035922397 -0.03325256 0.034350466 -0.039418243 -0.029653598 0.036590133 0.02520286 0.012275387 0.042445924 0.028648827 0.004224468 0.01830342 -0.013145566 0.017958295 0.035109404 0.013688747 -0.03499812 0.014641013 -0.042991675 -0.028897107 0.015398134 0.008214988 -0.0070700273 -0.022680223 -0.04313141 -0.0072529092 -0.032203842 0.038026962 0.012763057 0.02514137 -0.028620362 0.0054091103 0.04821552 -0.02693212 0.039157677 -0.0005553588 -0.030912543 0.036578324 -0.0030634403 0.040919248 0.014744233 -0.013374198 -0.0173272 -0.003671337 -0.047865596 -0.01950847 0.0020312779 0.00617633 -0.048215877 0.043720435 -0.045406498 0.03448477 -0.027250124 0.014500868 0.024419297 -0.014490485 0.029857602 0.008091044 0.043912027 -0.037661813 0.0073392503 -0.025046218 0.021160755 0.01860306 -0.036648475 0.00038784742
illness -0.020242656 0.0031520016 -0.017703496 0.033934224 0.03398304 -0.031477034 -0.013506282 -0.033342708 0.040054727 0.047049988 -0.017332982 -0.029982781 0.026945997 0.036606025 0.03582604 -0.022458388 0.043346416 0.010749042 0.02942134 -0.017579935 -0.03803774 -0.04385289 -0.03790884 -0.04735098 0.011038531 0.04721084 0.01299436 0.04745933 -0.026579047 -0.03207158 0.043406036 0.0060113184 0.04684813 -0.048157442 -0.03203249 0.03137287 -0.04387194 -0.008701313 -0.04643203 0.015766647 -0.041640222 0.024828378 -0.019479131 -0.0024016388 0.04068284 0.029382441 -0.012251891 0.00029113144 0.0049722306 0.046285283 0.04394361 -0.043652643 0.006904483 0.022681687 -0.0042018294 -0.032915927 -0.004401982 0.03690653 0.024611402 -0.028387893 0.037509177 0.045154456 -0.0004364848 0.021547686 0.0436412 0.04500183 -0.002151154 0.00039257854 0.04689521 -0.011062253 -0.028271342 0.0060864463 0.03651123 -0.010993529 -0.020066356 0.04062626 0.030774403 -0.040837027 -0.026004875 -0.0412698 0.03680141 -0.032620825 0.025932107 -0.007027544 0.02769195 -0.020503355 0.042326454 0.026622418 -0.04513636 0.048625436 0.025623966 -0.014997758 0.031101618 0.028528932 0.048199806 -0.0023170598 -0.017481327 0.0047206506 0.020218682 -0.018004786
or -0.04216794 -0.046482135 -0.039850008 -0.014463317 0.025881696 0.0013907924 0.015830208 -0.007879425 -0.0417851 0.044542637 -0.004724942 -0.022710431 0.026884865 0.046083484 0.029898908 -0.04891194 -0.018571567 -0.021221554 0.029368553 -0.037238527 -0.03756491 -0.020496642 -0.019511998 0.022583079 -0.0037373789 0.049365174 -0.015756737 -0.048543073 0.0216575 0.01723497 0.0064957365 -0.0012633093 0.04537194 -0.034481585 -0.028083002 -0.00034837797 0.03301095 -0.029843032 -0.047163915 0.032064725 0.030660141 -0.027724981 0.016031932 -0.027048921 -0.003332816 0.03230262 -0.02727728 0.0046366453 0.018576015 0.01030419 0.04256289 -0.019066488 -0.025025202 0.047017585 0.006975759 -0.018214535 0.019565765 0.024989937 -0.04261464 -0.019079853 0.010205269 -0.026293064 -0.015192963 -0.004060723 -0.03851386 -0.0058462135 -0.017072342 0.0006710775 -0.009326387 -0.013995398 -0.035834026 0.047194745 0.022592869 0.01826464 0.04329889 0.007325627 0.023107957 0.0007727854 -0.0353117 0.037853073 0.003583528 0.047755588 -0.0421008 -0.037459336 -0.014097847 -0.026124513 -0.019910336 0.029960502 -0.011612583 0.040724624 -0.0036439188 -0.009066559 -0.021469904 -0.021365559 0.013573993 0.009620942 -0.042569187 -0.013432443 -0.03905338 0.02897704
potentially -0.04566734 0.023235764 -0.03495065 -0.045735013 -0.01710558 -0.005385518 0.0240024 0.0065155625 0.021773543 -0.016547002 0.041161153 0.002351094 -0.019271588 0.03348751 -0.044513296 -0.044974614 0.02347232 -0.019141544 -0.044939604 0.01873212 0.0011424646 -0.030700887 -0.0010819919 0.045817103 -0.020932997 0.025374684 0.01509906 0.011891652 0.025519405 0.008609366 0.04849786 -0.034787845 -0.04248133 -0.035964333 0.049197767 -0.020577801 0.025935266 0.0378086 -0.01007092 -0.0060508475 -0.02508632 0.0050216094 0.028227065 0.025992993 0.019714464 0.03127234 0.04624952 0.020041358 0.026873205 0.04080889 -0.037266362 0.00032057613 -0.0008243434 -0.03936596 -0.02366525 -0.023369147 -0.041369833 0.045947377 0.039164428 0.03395405 -0.005311668 0.014740933 0.029292133 -0.0317709 -0.04621936 0.020589542 0.02203666 0.039390888 0.013703894 -0.017610073 0.031266008 0.033866692 0.0033960938 -0.008159518 0.024089757 0.040596876 0.032187533 -0.020198895 0.007743083 0.024095785 0.013632502 0.01752672 0.0084298365 -0.03859521 -0.019252313 0.03579769 0.035408165 0.008016884 0.042125452 -0.03712908 -0.00054241344 0.007280279 -0.0417886 0.04688238 0.023401652 -0.040678453 -0.010620393 -0.020099176 0.01730356 -0.013949655
pre -0.04452741 0.037445094 -0.008958925 -0.028814876 0.02097999 -0.025851715 -0.03923409 0.026617412 0.025293063 0.029412512 -0.009709049 -0.024438655 0.004208874 -0.02922827 0.020155001 0.0017695427 0.004326571 0.04346258 0.046792213 0.03650358 -0.03649074 -0.015532386 -0.047960114 -0.046139337 0.015655924 0.007997941 0.020692479 0.03479561 -0.014137827 -0.008007836 -0.032157384 -0.0022495165 -0.0139477365 -0.034627795 0.04898068 0.026673522 -0.01754434 -0.041269384 0.022580508 0.04576197 -0.049162675 -0.004894398 0.026386391 0.038124528 -0.037527274 0.018007483 0.0207703 0.04136261 -0.030068923 0.020548586 -0.040932298 -0.01982385 0.015345182 0.027518343 -0.015294038 0.01617613 -0.0131646395 -0.014288079 -0.020294165 -0.022899603 0.012575123 0.016213287 0.014248196 0.032200348 0.037961137 0.022771861 0.00801475 -0.01950947 -0.039112102 0.016295444 -0.043146323 0.021204267 0.027921531 -0.029403998 -0.043030776 0.04990525 0.00034720823 0.026721988 -0.016506802 0.03782386 0.00213046 -0.040613316 0.039830867 0.021432865 0.044537786 0.03195926 -0.02840197 -0.026870025 0.045757126 -0.0003690347 0.03689537 -0.011490762 -0.005146861 0.04069067 0.012131263 0.041875806 0.013687242 0.025686894 0.034328986 0.0116690025
symptomatic -0.028867101 -0.03712802 0.0127181895 0.012265395 0.013998758 0.041250113 -0.021780157 -0.042385187 -0.0021667369 0.00067311525 -0.043623973 -0.0485255 0.0032681003 -0.04429231 0.029680502 0.049877908 -0.015465535 -0.014326729 -0.03579738 0.00082350895 0.03459556 -0.0020895116 -0.026218964 0.047655355 -0.038231112 -0.040785886 0.009331882 0.039362404 0.048706237 0.022479441 -0.03218075 -0.0081674345 -0.013185941 0.027626801 -0.0017304309 0.00441413 -0.0014473908 0.036987852 -0.024050295 -0.021679832 -0.0013300404 -0.048386265 -0.004386056 0.003899455 -0.04052011 -0.040918123 -0.0071252473 0.025959086 0.020204816 -0.036932934 -0.027706314 0.034088958 0.04892618 -0.0036812536 -0.0377058 0.009889532 -0.031292666 0.045087073 0.028960992 -0.014607631 -0.004378915 0.042474236 0.033787023 -0.0084730275 -0.033766106 0.024811868 0.04328266 -0.011214506 -0.011157464 -0.0045848265 -0.020171512 -0.01913234 -0.039278198 -0.0390988 0.038936507 0.04354533 -0.035845388 -0.0131335035 0.027820472 0.007863153 -0.038052738 0.02676909 0.004545044 -0.0055818446 -0.03464514 0.0016142726 -0.018020712 -0.034061626 -0.014571726 -0.04000176 0.034385588 0.01716509 0.02778728 -0.007550359 0.0039815195 -0.030707693 -0.025556374 0.012524676 -0.039644837 0.00030145794
–transmission 0.02740648 0.023198131 -0.02739948 0.033564497 -0.0127740875 -0.0023623593 -0.034585167 -0.042767074 -0.035923194 -0.044550657 -0.0019202232 0.038545776 0.018566493 -0.019797672 0.0070280917 -0.004900135 -0.0028026327 -0.04036958 0.0029388778 -0.017485607 0.04514439 -0.039193165 -0.028696228 -0.039790403 -0.03500185 -0.028493917 0.03482652 -0.03946694 0.040173236 -0.034645237 0.00826063 0.049345028 0.005713653 0.02333263 -0.0057739243 0.019024145 0.001801502 -0.035392273 0.025754597 -0.012064777 -0.010994028 -0.03877902 -0.047092117 -0.025471915 0.04818702 0.00893756 -0.0420297 0.045062516 -0.014866818 -0.048582006 -0.00797341 0.013509396 0.046526078 -0.0056273937 0.023899447 0.0051933043 0.02910259 -0.021469569 -0.007893931 0.014640164 0.010922968 -0.009959329 -0.03675711 -0.049373414 0.0017662421 0.043591473 -0.008219518 -0.0011487119 0.021101747 -0.003965415 -0.02700144 -0.016528092 0.033325102 -0.030132724 -0.03077718 0.019230556 -0.024261951 0.011999238 0.0211928 0.0059329756 -0.03934325 -0.03889724 0.016157974 -0.029583693 -0.033299707 -0.029753853 -0.03304924 0.045611892 -0.045732737 -0.03784696 0.032487486 0.03369801 0.04797942 0.020748768 -0.03179723 -0.026591754 0.046341088 -0.0009207353 -0.0061764233 -0.021624018
before -0.030166185 -0.0077557676 -0.0100448355 0.017820071 0.02335937 -0.017096162 0.025607537 0.017162513 -0.008458268 0.0104331 -0.04665344 0.01164031 -0.038455617 0.03998587 0.008877158 0.01013713 0.0251516 0.01765884 -0.027296985 0.035901856 -0.0074061044 0.027517881 0.009468723 0.04325385 -0.0052907467 -0.037941527 0.036052894 -0.032714523 -0.029783165 -0.049041033 -0.040314544 -0.034370378 -0.017079435 -0.040623806 -0.012496877 -0.03894223 -0.02057302 -0.030907298 0.00022137165 -0.01924019 0.04864389 -0.022594 0.03324187 0.027657676 0.0063463673 0.010668408 0.0027130954 -0.027983308 0.015461508 -0.002711285 -0.008216441 -0.03839289 0.015863422 0.045030538 -0.01150576 0.03888793 0.019369986 0.014983226 -0.03759153 0.022232804 -0.04375825 -0.009558249 0.017537247 -0.043375697 -0.015736163 0.04165684 -0.02562418 0.023243118 -0.044015087 0.0014373772 -0.023326624 -0.034985863 0.037344668 0.042167928 -0.039655518 -0.031644486 0.025810365 -0.0057594404 0.014798988 -0.019525563 -0.0065542944 -0.025578713 0.019583259 0.0018987283 -0.048227467 -0.024401141 -0.009478189 -0.013113655 0.027155567 -0.047306325 -0.03946235 -0.0065912716 -0.024674559 -0.027553273 0.006641019 0.022456948 0.01725335 0.014574084 -0.016640387 -0.009697638
contrast -0.029167056 0.026393067 -0.030260623 0.008142017 0.022256698 0.03639478 0.036292624 0.024100851 0.030177485 0.018949714 -0.034402885 0.037445817 -0.010038398 -0.02343439 0.047448765 0.010401677 -0.018578757 0.035035994 -0.028966535 0.030875754 -0.005139947 -0.041928362 -0.03709036 0.0486887 0.01492336 0.01779962 -0.041217517 -0.04345962 0.009333897 -0.0067664273 -0.042134024 0.038566556 -0.0023889542 -0.034009896 -0.035362624 -0.029877115 -0.03983158 -0.033108674 -0.028608048 -0.015060127 0.040158045 0.04414201 -0.019017339 -0.017597117 -0.04507315 -0.0097588785 0.034754526 0.027691815 -0.048188675 -0.043019976 -0.022151161 0.002790641 -0.015447557 -0.0144343 -0.018705726 -0.032106876 0.03208636 0.039294485 0.024951939 0.047090378 0.006276548 0.038062338 -0.0036021955 -0.017520428 -0.019618917 0.014471125 0.011701036 0.0061291084 0.0064393766 -0.047980394 0.047378127 0.0287905 -0.005988814 -0.017754007 -0.029510975 -0.0316595 0.002423644 0.03513595 0.022978459 -0.008037068 -0.023607804 -0.00014599413 -0.018017076 -0.03739064 0.042482544 0.015948657 0.04435667 0.012868371 0.04370195 0.014303219 -0.0014670976 -0.024561478 -0.03919803 -0.013743114 0.03207786 0.037853185 0.025086913 -0.0040597096 -0.047837652 -0.0023989454
we -0.04867501 -0.013262354 0.019974444 0.021590117 -0.046459008 0.029306386 0.020050708 -0.010279991 0.043306027 0.0076957233 0.01762363 0.04782908 0.03572971 0.03566022 0.026851837 0.022008244 -0.0038147196 0.01809993 0.033494245 0.03972579 -0.008940745 -0.017569818 0.03225335 -0.047156204 0.049100224 -0.0062979683 0.031034265 -0.034306526 -0.0016041994 0.0063946247 0.017781306 -0.045615803 -0.0042008758 0.0076376908 0.0020485632 -0.043545317 0.013800692 -0.02414813 0.045149717 0.03306556 0.04121915 -0.029902196 0.045547117 0.0056863427 0.011815093 0.030443225 0.047144737 0.026137415 0.016341437 0.00040559843 0.016959082 0.03850467 0.023964737 -0.029605044 0.026941288 -0.02580533 0.042411696 0.032628026 0.027510848 0.034707975 -0.020146191 0.036350433 0.027873527 -0.020439554 0.03775729 0.031522665 -0.021428753 -0.0053496733 0.020822275 0.004577838 0.007630445 0.046750043 -0.038955797 -0.0012598522 0.006316267 0.04883636 -0.021254504 -0.010943223 0.0021696687 -0.037572525 -0.020206392 0.020639885 0.003084682 0.03921709 0.043829683 0.008297395 0.030087758 -0.031254314 -0.04427551 -0.030059172 0.023130383 0.019426335 0.011700511 -0.003352739 0.019117389 0.044278238 -0.03767078 0.020822737 0.0046553724 0.03951702
learning -0.044249024 -0.043999385 0.025198665 0.005107235 0.019149136 -0.025849177 0.0149134435 -0.019101977 0.027706806 0.015620563 0.017466377 0.020155076 0.024718072 -0.011165105 0.038088355 -0.026034463 -0.034469794 0.031770412 0.018035006 -0.03904239 0.013425399 -0.017263792 0.008493364 0.018269207 -0.011849582 0.004252255 0.026743863 -0.049296536 0.028161716 0.014518868 0.0349808 -0.037682258 0.0079603195 0.029820349 -0.008400489 0.003945064 0.0015053265 0.015401814 -0.046389163 0.013677027 0.01311307 -0.023177981 0.016699146 -0.009451341 -0.02131772 -0.0068351403 0.01833016 -0.012768291 -0.010129403 0.043244395 -0.029553784 0.03202704 0.021080244 -0.014111482 0.025056724 -0.008870911 -0.033633187 -0.04657942 0.02085935 0.00072274357 -0.02220118 0.044225384 -0.021465337 -0.03786396 0.021274272 0.039139364 0.014051471 -0.03922695 -0.011622228 0.0030195117 0.030322913 -0.02820599 -0.029336227 -0.038315833 -0.026415993 -0.036418807 -0.04933573 0.038460698 -0.042799067 -0.015240859 0.034201276 0.04406252 -0.043815613 0.024516668 0.0330359 -0.0071062557 0.016229298 0.033597123 -0.027320994 0.02688856 -0.037372876 -0.009317648 0.026594285 0.04991856 0.007927049 -0.02891674 0.045977425 0.0007974617 0.011697423 -0.049857475
there -0.0115308985 0.012932669 0.019069161 -0.027355945 0.013290476 -0.021861052 -0.011572611 -0.00047039986 0.04103509 -0.049903896 0.0029361248 -0.018923974 0.02554455 -0.006729938 0.02376647 0.024220292 -0.037991296 -0.020048691 0.036999833 0.028246794 -0.01789676 -0.010456145 -0.009701468 -0.015707672 -0.037063528 0.023557458 -0.023559285 -0.031681493 -0.045071255 0.021921162 -0.018019509 -0.0012487546 -0.049458064 0.024979282 0.04350282 -0.03432249 -0.02927475 -0.032154813 -0.04551443 -0.014275622 -0.037311114 -0.048433173 -0.014089547 0.03724352 0.03929719 -0.017607521 -0.016014446 0.045485448 -0.0034164414 -0.005674254 0.011779178 -0.007068336 0.028535757 -0.010158587 -0.024215257 -0.030900717 -0.039425146 0.019821052 0.014012147 -0.0032482743 -0.030955637 0.021279838 0.034453895 -0.019307781 0.022739533 0.01606245 0.033547748 0.0321978 -0.041221343 0.040689398 -0.0061726794 -0.019440938 0.022204924 -0.009656418 0.016674642 0.020569596 0.024156678 -0.031149924 0.01645651 -0.03923167 -0.0048028603 0.037504937 -0.022213984 0.045811716 0.026456747 0.013985585 0.038733725 -0.013238229 -0.04315157 -0.011488952 -0.036971282 -0.037165128 0.044031475 -0.005187191 -0.018087588 -0.037827898 0.049619984 0.046087135 0.014086198 -0.049301364
people 0.003228806 -0.008519638 -0.03875463 0.029537026 0.0009955987 0.029788923 0.039821003 0.049970392 0.027429316 0.007533241 -0.019343913 0.00011410564 0.0070789345 0.038754378 -0.021642601 0.044638645 0.03774393 0.010685075 -0.017880369 -0.023061527 -0.04495312 0.034547936 0.031217542 0.029826615 0.03256351 0.0048123226 0.043796968 0.007229198 0.00024399906 0.015660595 0.014916632 -0.042864382 -0.03946078 -0.0009327531 0.019877303 -0.02385956 0.028134618 -0.02577374 -0.029554892 0.010112666 -0.03402078 -0.00074762106 -0.020769143 0.012446273 -0.00953852 -0.0057753213 -0.012265898 0.03372245 -0.011566091 0.021060217 -0.015426148 0.025332067 -0.0057536475 -0.03618759 0.026781332 0.013692949 -0.03883071 0.008111037 -0.017142069 0.0070656054 0.043053593 -0.049920868 0.0018769726 -0.01740706 0.0040191785 -0.039149605 0.0015700683 0.018711474 0.010214426 0.038352836 0.015790056 0.008204661 0.032584216 0.041595805 -0.0497337 0.033715617 0.021960888 -0.023859764 -0.007633198 -0.02556752 -0.012245834 -0.0060048476 -0.005943287 -0.019624984 0.02156875 0.049509887 -7.417053e-05 0.044976976 0.047513578 0.03683115 0.03302869 0.014395986 -0.03978797 0.04039422 -0.030591143 -0.011065196 -0.04226042 -0.01128323 -0.017411064 -0.01934737
who -0.022560382 0.0058759674 -0.0072682127 0.011921596 -0.04614538 0.0066010132 -0.010314286 -0.028673088 0.011281811 0.021564577 0.015597913 -0.015586078 0.012966942 0.01734152 0.015588049 -0.04497024 -0.045746293 -0.04320958 -0.04653112 -0.024141992 0.005035531 -0.022182941 0.021875951 0.018400852 0.03899962 -0.042506732 -0.013116516 0.010478329 -0.045390334 0.025546912 0.007890798 -0.0125543475 -0.02510804 0.030980323 -0.00435815 0.0072913542 0.019525256 0.0023368113 -0.046981025 -0.024329042 0.0044257753 -0.036599327 -0.007936645 -0.04232675 -0.036353778 -0.005741168 -0.03458382 -0.038993023 0.040867295 0.02065232 -0.009524427 -0.036272906 -0.018921077 0.010501992 -0.03900666 -0.0010494366 -0.0039832704 0.039789263 -0.018674575 0.023226712 0.038275246 -0.006657075 -0.021386063 0.023264956 0.009727873 -0.0076880567 -0.049500313 -0.015023291 -0.029596115 -0.043581616 -0.022830177 -0.016295385 -0.022962106 0.04142442 -0.044314243 -0.006550811 0.0011374839 0.028760199 0.015289258 0.0051003583 0.02673098 -0.021634376 -0.039034117 -0.015583575 -0.040624548 -0.019485284 -0.0036987886 0.011226177 0.048257533 0.004932236 0.002953209 0.018350627 0.009364985 0.044993196 -0.021441007 -0.025921954 -0.031529628 0.013619725 0.0329617 -0.013898514
shed -0.020758212 -0.043165326 -0.0483506 -0.044720184 0.026713941 -0.00034277514 0.023604881 0.0004995838 0.008545447 -0.041148473 0.005197417 -0.032481387 -0.0015940778 -0.04766084 -0.02689637 0.027324926 -0.009106457 0.0017191544 0.047620524 0.02795193 0.017425012 -0.03862636 0.025947202 -0.020933306 -0.04914534 0.029684413 -0.012990009 -0.0055315383 0.03397682 0.027344827 -0.035483025 -0.0021584854 0.016929556 -0.039710272 0.034388077 0.013847735 -0.0009992607 0.013417248 -0.046684086 0.03685793 0.0064912215 0.0012969486 0.0054653287 -0.025859296 0.0320053 -0.028857028 -0.022683835 -0.039778233 0.017752435 -0.0023383014 -0.005324185 0.038848925 0.005885102 0.043109838 0.031235445 0.0010737553 0.048034016 0.0137628205 -0.003970217 -0.046808194 -0.026649535 0.023681317 0.046546783 -0.047475874 0.0058649667 -0.019487906 0.012355842 -0.037872277 0.01181512 0.034949694 -0.037572026 -0.0008547902 0.005593598 0.005171217 -0.048986316 -0.049231973 0.015489291 0.022355411 0.04303178 -0.03792026 0.015973996 -0.022293556 0.011438288 -0.0006914139 -0.04163816 0.011294842 0.037601504 0.014497865 -0.0152056925 0.04839926 0.043168377 -0.04782305 0.04903212 -0.013346899 -0.013057552 0.04668924 -0.007044755 0.026301239 -0.042874802 0.007023502
24 0.0063513033 -0.009058941 -0.034629453 0.047565926 -0.0464975 0.009539448 0.033461582 -0.01794865 -0.03970889 -0.042842936 0.033304404 0.0010444745 0.012064289 0.04078049 -0.007174302 -0.009969413 0.049917016 0.03125335 -0.0022580512 0.014258634 0.013662782 -0.013715316 -0.03969271 0.045504417 0.031017486 -0.005527843 0.01098777 0.016019378 -0.044195663 -0.03031155 -0.04473987 0.024668489 0.034806285 -0.04144571 -0.0063303337 0.048212994 -0.026103914 -0.032843426 0.043243412 0.0024471655 0.0050947554 -0.020197367 -0.028163875 0.02112354 -0.018309344 0.00940932 0.011337768 0.0034716018 -0.017001294 -0.0371089 -0.03861134 -0.020566344 -0.026033713 -0.017100275 0.027708795 -0.021763468 0.00019410998 0.006572701 0.033301387 0.04781233 0.02543844 -0.035695635 -0.030252552 -0.0067505017 -0.032911852 -0.014113676 0.049747083 -0.026669264 0.043668117 -0.0076002367 -0.0014378428 0.015436735 -0.02226652 0.0371213 0.0090307705 -0.036601555 0.034194496 0.019524638 -0.04343566 -0.048757743 0.037304584 0.027988624 0.0499555 -0.0034917109 0.0037627593 0.0073388442 0.049298298 -0.025790667 0.042628717 -0.012116741 0.03955311 -0.007976927 0.01441722 -0.007851899 -0.019470049 -0.010851324 0.034830544 -0.028739477 0.037508 0.04984509
48 0.0005712509 -0.0015238635 0.04424974 0.012593795 0.046924006 0.02766272 -0.031553566 -0.03518462 -0.0106417425 -0.015963387 0.006509684 -0.0015465245 -0.023363758 -0.038866244 0.030834328 0.033996593 0.012117673 -0.026046706 -0.040621758 -0.0114996545 -0.0049320087 -0.0065778494 0.012261055 -0.043433394 -0.043352377 0.030611906 0.008364461 0.03408346 -0.01540909 -0.0451862 0.018831681 0.03879149 -0.0016836151 -0.011925124 0.03410543 -0.0051103607 -0.04922804 -0.026708914 -0.009408869 0.024318289 0.006449569 0.03776096 0.007535018 0.03839116 0.01079477 0.046720747 -0.01440822 -0.014496196 0.016131174 0.025561381 0.049279775 -0.0054186694 0.014513519 -0.00060330704 0.0008091703 0.005306937 0.028003398 0.037885156 -0.005302895 0.031438652 0.0412387 -0.04741651 0.040821802 0.0023751967 0.01767962 -0.036220323 0.045641627 -0.045006502 0.012506809 -0.024070645 0.042558942 0.043425526 -0.034550894 -0.030618502 0.04138649 0.03516003 -0.047733773 0.041682307 0.009262931 -0.0087835565 -0.014665294 -0.016570367 -0.015895583 0.01587889 -0.008025181 -0.049788084 -0.0030575506 -0.005545281 0.008745097 -0.025787223 -0.0041453466 0.035919372 -0.032219484 -0.005145382 -0.011300098 -0.03782629 -0.015246309 -0.034716368 0.013498161 -0.005584717
hours -0.00871117 0.040009033 -0.012925815 -0.008101679 -0.04857875 0.033363286 0.049689654 -0.022574712 -0.010912359 -0.0006304756 -0.045962013 -0.048819076 -0.023732591 0.005193472 -0.034320556 -0.04947654 0.003566049 -0.009361111 -0.046421755 -0.031077791 -0.014819097 0.011463404 0.030137729 0.010880541 -0.014489174 0.03373443 -0.011046898 -0.017165136 -0.037079357 -0.022794843 0.04984499 -0.044784367 0.026963416 0.0055130944 -0.019257104 0.046178643 -0.015221406 -0.0117020495 -0.038359273 0.0070644617 0.021557335 0.019577716 0.026980791 -0.043237627 -0.0049520135 -0.045346465 -0.0013112314 0.039215628 0.041395497 -0.043879867 0.02610476 -0.0053476915 0.004160382 0.002835203 -0.032797623 0.0032765977 0.027382646 -0.011934936 -0.029802728 -0.04474577 -0.0196342 0.020966087 -0.0318323 -0.003972601 -0.045712985 -0.009486772 0.017785218 -0.019646062 -0.04059253 -0.012288511 -0.00041681528 0.015843403 -0.028081715 0.0018527731 -0.02899462 0.035614643 0.039119687 -0.041238762 -0.033413433 0.038275387 0.008157052 0.003561508 0.03203341 -0.017230023 -0.04603639 -0.008542646 -0.018755948 0.021555867 0.048116457 0.031262446 -0.018106986 0.034723464 0.03334255 0.046335433 -0.031599067 -0.044486474 -0.033145964 0.026281264 -0.031870067 -0.041521598
prior 0.029084135 0.048821602 0.03471649 0.015547443 -0.01033356 -0.025368333 0.045545164 -0.0403545 -0.040393032 -0.04098984 -0.0269305 0.011675201 -0.0009746328 0.025744367 -0.04726968 -0.016746353 0.01151403 -0.038848437 -0.015738655 -0.018817008 -0.01715839 -0.037061036 0.0390666 -0.044939756 -0.037051667 0.025568116 0.037408654 0.03663901 0.043863785 0.010709442 -0.010900579 0.03995711 -0.045737922 -0.039070856 -0.020339299 0.045184646 -0.038281 0.005104579 0.03790999 -0.033989657 -0.014495432 0.01703639 -0.0009416118 -0.0061095357 -0.002527438 -0.020887017 -0.03252864 0.04708833 -0.0035338514 0.02103642 0.022830915 0.02287488 -0.022134138 0.011415124 0.04066557 -0.04662193 0.009983849 -0.010081373 0.019131329 -0.047611203 -0.0075482354 0.0026715286 0.007282436 -0.008977067 0.032801416 -0.01277728 -0.027424527 0.038692784 0.049359825 0.020389888 -0.001621604 -0.008283902 -0.023938049 0.03621782 0.012534868 0.0343416 0.04993738 0.02520043 -0.027902294 -0.008663334 -0.013560928 -0.028631711 -0.037895024 -0.014824141 -0.014887322 -0.04028994 0.015410665 0.011877071 -0.049640547 0.025518883 -0.015755642 0.0077086687 -0.04472431 0.029127207 0.02838147 0.01631445 -0.014662385 0.0021757483 -0.00044732168 -0.04598813
symptom -0.01491053 -0.014764309 -0.049582362 0.004959382 -0.023280693 0.0441286 -0.04167793 -0.04864235 -0.018362213 0.028811421 0.017429259 0.04458684 -0.0445776 -0.0157529 0.007698573 -0.0043158904 -0.038834285 -0.018359683 0.02584621 -0.037160195 0.030627098 -0.03403113 0.010244548 0.023863185 -0.043116845 0.0010681525 -0.0020080805 -0.008420598 0.04208711 -0.004464876 0.025918473 0.007107295 -0.006062649 0.020969775 -0.035478543 0.032034185 -0.047406804 -0.030229641 -0.035393715 -0.013377201 0.027551446 -0.0076355822 -0.013185512 -0.046521712 -0.018742502 0.005180083 0.017466832 0.023384262 0.023072395 -0.022978116 0.04668497 -0.02875774 -0.008349396 0.0460529 0.041276623 0.012145162 -0.037335705 -0.03243325 0.0041026585 0.026797678 0.042789195 -0.048196223 -0.036190975 0.03239442 0.015556265 -0.04670749 0.027153779 0.00405965 -0.029022574 0.02520192 0.022284161 -0.00054515526 0.043184962 -0.020740999 0.0063906424 -0.034899283 -0.002816964 0.018225323 -0.01134447 -0.02186476 -0.018386733 -0.015525378 -0.04601722 -0.03347844 0.0079776645 -0.042402722 -0.0316311 0.034583602 0.019254837 0.019959006 0.022691142 -0.010814227 -0.038877476 -0.049602997 0.043136645 -0.04952674 -0.02622931 0.037781883 -0.026461363 -0.017876994
onset 0.036416877 -0.03094312 -0.049577177 0.04061557 0.01600689 0.0068829767 0.0011717454 0.039815295 0.047891703 -0.022018684 -0.02024721 -0.0029134527 -0.02826873 -0.021195054 0.008472074 0.009952165 0.012969222 0.015629973 0.025213514 0.023061264 0.011913322 -0.017367743 0.015013579 0.039139953 0.004612945 -0.037693836 0.041480992 0.03135064 0.028019559 0.029254783 -0.018884981 -0.03333976 0.01281878 0.033293907 -0.019405007 -0.026500285 0.031565774 0.011979867 -0.019334221 -0.017961957 0.026413623 0.024569217 -0.021509469 -0.04974723 0.021311488 0.0053145774 0.032544944 0.00020437315 -0.01994288 -0.0342383 -0.049261786 -0.026711846 0.022844855 0.028337669 -0.026931882 -0.028678669 0.022828672 0.0077650174 -0.022214318 -0.030478597 0.0019351728 -0.008391701 0.009202469 0.042220537 0.0067855343 0.033707824 0.03228331 -0.020819116 -0.037263084 -0.01792841 0.014308203 -0.041876186 0.007881664 -0.025200844 -0.039844323 0.019199256 0.02140883 -0.034128763 0.029239964 -0.014089324 0.029443417 0.021953966 -0.029888272 0.010874618 -0.010962915 0.031961057 -0.027443552 0.0063820966 -0.045397796 -0.015180506 -0.007232178 -0.017815303 -0.006172549 0.043040577 0.019005183 -0.017591406 -0.014872801 0.0322018 -0.04055034 -0.010406889
at -0.04932133 -0.0046777837 -0.0062665828 0.02773508 -0.003944002 0.022302594 -0.044221736 0.042293977 -0.010345735 -0.016504727 0.00030119345 -0.026519751 -0.019516194 -0.030550038 0.027601171 0.04382496 -0.015736602 -0.046851456 -0.004321467 0.0023624413 -0.00057072565 -0.025940442 0.02588785 0.0011231676 -0.0026289 -0.04264876 0.035082366 0.016126897 0.015213657 0.013176981 0.03691118 -0.039056577 -0.04440942 -0.01654569 0.035379384 -0.024047768 0.04825336 0.020290796 -0.0030417442 0.006688345 -0.04376304 -0.03288114 0.048237685 0.03226078 0.034395624 0.014287759 -0.015558898 -0.0425524 -0.0011817105 -0.004983805 0.02998313 0.04715308 -0.029813195 -0.030833377 -0.024015784 -0.010268819 0.0014996417 -0.042810228 -0.03952824 0.01981033 0.04265176 -0.020182837 0.003441073 0.033248257 0.02643099 0.04004996 -0.017252993 -0.011390436 0.03315336 0.043934915 0.015974108 -0.027508045 0.01743747 0.02273928 -0.015253626 0.005925752 -0.0174461 0.030712653 -0.037739694 0.0035896301 0.014261398 0.049304906 0.03400744 -0.008407842 -0.042237557 -0.039253164 0.03870828 -0.046722185 -0.037768114 0.0062907115 -0.012593627 0.03510857 0.007108379 0.04079095 0.032407496 -0.008577775 -0.032961525 -0.039812587 -0.011390902 0.024704311
present -0.020136392 0.03252094 0.012485575 0.004458569 0.0103164315 0.023865331 -0.032779172 -0.033082798 0.044442642 -0.005191982 0.035544787 0.00066911057 0.036205117 0.044452462 -0.048651565 -0.010341167 -0.0050619245 0.04980657 -0.0039658174 -0.0018012151 0.037994746 -0.013361346 -0.042452957 -0.03161931 -0.008954931 0.005250167 0.03198338 -0.049918916 -0.0048589595 -0.016466629 -0.004741788 0.043104235 0.035218943 -0.0010954626 -0.004755698 0.038712036 0.039540637 0.040313933 0.024357084 0.0345381 -0.011160672 -0.034746338 -0.0411731 -0.016460955 -0.012686335 0.01403575 0.0017422065 0.045058858 0.0137865655 0.02778763 0.041768122 -0.03922596 -0.018508542 0.013321828 -0.018852163 0.0007254705 0.014772508 -0.03012675 -0.04415977 -0.042855024 0.015247036 -0.008252002 0.008318853 0.040488813 0.029074166 0.003708411 -0.004395269 0.03582206 0.032209385 0.022054028 0.006519269 0.008126449 -0.03390187 0.027540196 -0.03798498 0.04760498 0.021500375 -0.033340633 -0.03678093 0.00011036545 0.019686613 0.04220483 -0.019358099 -0.04229882 -0.009750329 -0.0002482161 -0.0009294972 0.008709084 0.049059574 -0.04076171 -0.044118833 0.03900261 0.0044359677 0.011335991 0.04677293 0.04265027 0.048249733 -0.048297536 0.013562504 0.035823587
does 0.03240614 -0.021534277 -0.008102082 0.021321688 -0.036117755 0.029047165 0.049503718 0.039601866 0.03430872 0.02804618 0.014343213 0.013269689 -0.020261467 0.008934416 0.04369882 -0.042838585 -0.020651627 0.03930861 -0.021279741 0.049455773 -0.037697054 0.020924773 -0.037125252 0.022381637 -0.047991812 -0.04083811 -0.02787645 0.01915035 0.026151124 0.047746215 0.03525764 -0.019769073 0.009843707 0.01715872 0.01058488 -0.043676723 -0.014319468 -0.049065985 0.008128323 -0.019831574 0.0108914 -0.005595278 0.021218065 0.017747212 0.0417555 -0.040466867 -0.011000216 0.031305287 -0.020272648 0.03438938 0.028625939 0.037235092 0.029931996 0.024555389 -0.00649333 0.008086264 -0.03975307 0.025952589 0.004861869 -0.044648826 0.007486034 0.022039477 0.025486339 -0.026591707 -0.0063445196 0.032546487 0.008888125 -0.0007588044 -0.009119164 0.04027721 0.024570312 -0.0406517 0.002329301 0.041212846 -0.027360797 0.040481064 0.0069667324 0.00420494 -0.0054093823 0.01502445 -0.010589682 -0.0016662851 0.016205575 -0.024048984 0.01317573 0.031395342 0.030176293 -0.029800653 -0.0041763186 0.014755372 0.015024636 0.04857861 -0.016797196 -0.015255619 0.035139922 -0.028222203 -0.017486311 0.023426544 0.021532502 -0.015225731
